{"learner":{"attributes":{"scikit_learn":"{\"_estimator_type\": \"classifier\"}"},"feature_names":["client_id","card_id","amount","use_chip","merchant_id","zip","mcc","had_error","current_age","retirement_age","birth_year","birth_month","gender","latitude","longitude","per_capita_income","yearly_income","total_debt","credit_score","num_credit_cards","card_brand","card_type","card_number","cvv","has_chip","num_cards_issued","credit_limit","year_pin_last_changed","card_on_dark_web","hour","day_of_week","account_age_days","days_to_expiration","years_since_pin_change","amount_to_limit_ratio_moneyspend","debt_to_income_ration_loan"],"feature_types":["int","int","float","int","int","float","int","int","int","int","int","int","int","float","float","float","float","float","int","int","int","int","int","int","int","int","float","int","int","int","int","int","int","int","float","float"],"gradient_booster":{"model":{"cats":{"enc":[],"feature_segments":[],"sorted_idx":[]},"gbtree_model_param":{"num_parallel_tree":"1","num_trees":"200"},"iteration_indptr":[0,1,2,3,4,5,6,7,8,9,10,11,12,13,14,15,16,17,18,19,20,21,22,23,24,25,26,27,28,29,30,31,32,33,34,35,36,37,38,39,40,41,42,43,44,45,46,47,48,49,50,51,52,53,54,55,56,57,58,59,60,61,62,63,64,65,66,67,68,69,70,71,72,73,74,75,76,77,78,79,80,81,82,83,84,85,86,87,88,89,90,91,92,93,94,95,96,97,98,99,100,101,102,103,104,105,106,107,108,109,110,111,112,113,114,115,116,117,118,119,120,121,122,123,124,125,126,127,128,129,130,131,132,133,134,135,136,137,138,139,140,141,142,143,144,145,146,147,148,149,150,151,152,153,154,155,156,157,158,159,160,161,162,163,164,165,166,167,168,169,170,171,172,173,174,175,176,177,178,179,180,181,182,183,184,185,186,187,188,189,190,191,192,193,194,195,196,197,198,199,200],"tree_info":[0,0,0,0,0,0,0,0,0,0,0,0,0,0,0,0,0,0,0,0,0,0,0,0,0,0,0,0,0,0,0,0,0,0,0,0,0,0,0,0,0,0,0,0,0,0,0,0,0,0,0,0,0,0,0,0,0,0,0,0,0,0,0,0,0,0,0,0,0,0,0,0,0,0,0,0,0,0,0,0,0,0,0,0,0,0,0,0,0,0,0,0,0,0,0,0,0,0,0,0,0,0,0,0,0,0,0,0,0,0,0,0,0,0,0,0,0,0,0,0,0,0,0,0,0,0,0,0,0,0,0,0,0,0,0,0,0,0,0,0,0,0,0,0,0,0,0,0,0,0,0,0,0,0,0,0,0,0,0,0,0,0,0,0,0,0,0,0,0,0,0,0,0,0,0,0,0,0,0,0,0,0,0,0,0,0,0,0,0,0,0,0,0,0,0,0,0,0,0,0],"trees":[{"base_weights":[2.6367057E-2,1.2227576E0,-2.1702025E0,7.501182E-1,1.3843906E0,-2.3782384E0,-9.765445E-1,1.2331618E0,-1.6709521E0,1.3991113E0,-5.1333435E-2,-2.421803E0,-7.6721746E-1,-2.5652685E0,-4.0674448E-1,1.4978275E0,7.582533E-1,-8.843092E-1,3.8549018E-1,-5.92912E-1,1.4060318E0,-2.3364918E0,1.8328647E-1,-2.045055E0,-2.519848E0,2.2719274E-1,-2.8390532E0,-2.6018775E0,8.697733E-1,3.156815E-1,-1.3935245E0,1.5075172E0,1.1165137E0,-1.15465865E-1,1.3777785E0,1.5091095E0,-2.5226232E-1,1.011533E0,-1.585932E0,-8.836235E-1,1.4084567E0,9.030875E-1,-8.838389E-1,-3.004887E-1,9.5612776E-1,-2.5911841E0,-1.6173394E0,-2.736223E0,-2.2841733E0,3.5265994E-1,-8.834118E-1,-8.842456E-1,3.4507102E-1,-1.7612754E0,-2.6982594E0,-8.7513393E-1,1.4727731E0,9.885855E-1,-1.4537106E-1,-1.4956015E0,1.374764E0,1.5076141E0,-7.95589E-1,1.429343E0,-8.831415E-1,-7.200253E-1,1.497532E0,1.4090098E0,-3.0225056E-1,1.5116324E0,-8.0613947E-1,-9.3323314E-1,1.5029993E0,-8.7979305E-1,1.2831135E0,-5.475599E-1,-8.839024E-1,1.4256729E0,1.074223E0,1.4752586E0,-8.6502504E-1,-8.834378E-1,-8.1020996E-2,1.1825652E0,-1.2195911E0,-2.1777093E0,-2.8460011E0,-1.0337808E0,-2.15721E0,-2.472849E0,-2.924091E0,-1.6277048E-1,-2.3882208E0,7.1828353E-1,-5.3555363E-1,4.525092E-1,-8.760401E-1,-8.839682E-1,-1.0558944E0,-2.884671E0,-2.2189696E0,4.5326594E-1,-7.406595E-1,1.0254023E0,-8.8212156E-1,-6.5178955E-1,6.3255626E-1,-6.533947E-1,-1.8073201E0,-8.6831313E-1,1.4610025E0,-7.4570704E-1,1.5076722E0,1.4686955E0,-8.7424225E-1,-1.6462681E0,1.091475E0,1.5115919E0,-8.7392354E-1,1.4990678E0,1.1787989E0,1.4921618E0,-1.9355816E0,-7.730692E-1,4.540003E-1,-1.3158687E0,3.9214513E-1,1.5123553E0,-8.397233E-1,-8.702536E-1,1.3775609E0,4.1660246E-1,-8.832095E-1,1.1916819E0,1.4450104E0,-8.8399214E-1,1.1737945E0,4.525092E-1,-6.115143E-1,8.918992E-1,-6.605557E-1,-4.1529647E-1,1.4467115E0,4.50511E-1,-8.8245165E-1,-1.6949441E0,-2.628527E0,-1.1108171E0,-2.86216E0,-8.7016946E-1,-2.4517617E0,-2.818129E0,-1.7752683E0,-2.7590601E0,-2.2970212E0,-2.1123912E0,-2.9279366E0,8.7544173E-1,-5.668671E-1,-2.257268E0,-2.7297306E0,-8.820611E-1,8.0226815E-1,-8.8364154E-1,-8.422858E-4,-8.835044E-1,-4.0363494E-1,-1.9354094E0,-2.915152E0,-1.2308336E0,-2.523768E0,1.0562196E0,-8.8164985E-1,-4.157633E-1,-2.3707979E0,1.0211755E0,-4.764479E-1,1.7090356E-1,-1.4924674E0,-2.6357052E0,-1.4330043E0,1.4910097E0,-8.3869165E-1,4.4475058E-1,4.5402387E-1,-8.486054E-1,4.4387943E-1,1.6688573E-1,-7.0509046E-1,-1.3734861E-2,4.179894E-1,4.5359045E-1,-6.115143E-1,4.5356524E-1,4.1165742E-1,-8.826537E-1,3.7110338E-1,4.5264205E-1,-7.2304046E-1,2.7242267E-1,-8.834116E-1,7.599976E-2,-5.0187683E-1,-8.829204E-1,2.5645465E-1,4.5390752E-1,-5.072023E-1,4.2802247E-1,-8.5682076E-1,-8.813119E-1,3.002758E-1,-7.7273375E-1,3.825715E-1,3.918706E-1,4.3770525E-1,1.9650537E-1,3.8866565E-1,3.2409808E-1,-8.801474E-1,-7.60529E-2,-8.835475E-1,4.5176336E-1,-8.8237715E-1,4.3937528E-1,-8.5129607E-1,-8.071799E-1,-2.705463E-1,-8.644896E-1,-4.723434E-1,-8.822277E-1,4.2891875E-1,-8.6357784E-1,-3.5762152E-1,-5.648282E-1,-1.8656574E-1,-8.8415504E-1,-4.404683E-1,-8.576269E-1,-4.3055037E-1,9.5080845E-3,-6.045572E-1,-8.691435E-1,-5.707431E-1,-7.2654563E-1,-5.056107E-1,3.7698418E-1,-8.8362986E-1,-8.806548E-1,-7.978833E-1,-8.801028E-1,2.9805157E-1,-8.837379E-1,-1.0386824E-1,-8.289607E-1,-6.135328E-1,-3.6010325E-1,-8.343523E-1,-8.8148284E-1,2.6156676E-1,1.4384255E-1,-5.5424386E-1,8.160717E-2,-8.8298064E-1,2.1747687E-1,-8.8339496E-1,-6.034514E-1,-8.8429767E-1,-8.8360494E-1,-1.285564E-1,-7.8551203E-1,3.96425E-2,-8.812025E-1,3.2489517E-1,-4.7691402E-1,4.138974E-2,2.0074281E-1,-7.9018855E-1,3.225373E-1,-8.80761E-1,-6.7257774E-1,7.588254E-2,1.22157015E-1,-8.8309664E-1,-7.184408E-1,-1.9886096E-1,-2.6652187E-1,-8.336522E-1,-4.6385508E-2,-5.0510573E-1,4.5229542E-1,-8.045588E-1],"categories":[],"categories_nodes":[],"categories_segments":[],"categories_sizes":[],"default_left":[0,0,0,0,0,0,0,0,0,0,0,0,0,0,0,0,0,0,0,0,0,0,0,0,0,0,0,0,0,0,0,0,0,0,0,0,0,0,0,0,0,0,0,0,0,0,0,0,0,0,0,0,0,0,0,0,0,0,0,0,0,0,0,0,0,0,0,0,0,0,0,0,0,0,0,0,0,0,0,0,0,0,0,0,0,0,0,0,0,0,0,0,0,0,0,0,0,0,0,0,0,0,0,0,0,0,0,0,0,0,0,0,0,0,0,0,0,0,0,0,0,0,0,0,0,0,0,0,0,0,0,0,0,0,0,0,0,0,0,0,0,0,0,0,0,0,0,0,0,0,0,0,0,0,0,0,0,0,0,0,0,0,0,0,0,0,0,0,0,0,0,0,0,0,0,0,0,0,0,0,0,0,0,0,0,0,0,0,0,0,0,0,0,0,0,0,0,0,0,0,0,0,0,0,0,0,0,0,0,0,0,0,0,0,0,0,0,0,0,0,0,0,0,0,0,0,0,0,0,0,0,0,0,0,0,0,0,0,0,0,0,0,0,0,0,0,0,0,0,0,0,0,0,0,0,0,0,0,0,0,0,0,0,0,0,0,0,0,0,0,0,0,0,0,0,0,0,0,0,0,0,0,0,0,0,0,0,0,0,0,0],"id":0,"left_children":[1,3,5,7,9,11,13,15,17,19,21,23,25,27,29,31,33,-1,35,37,39,41,43,45,47,49,51,53,55,57,59,61,63,65,67,69,71,73,75,-1,77,79,-1,81,83,85,87,89,91,93,-1,-1,95,97,99,-1,101,103,105,107,109,111,-1,113,-1,115,117,119,121,123,-1,125,127,-1,129,131,-1,133,135,137,-1,-1,139,141,143,145,147,149,151,153,155,157,159,161,163,-1,-1,-1,165,167,169,-1,-1,171,-1,173,175,177,179,-1,181,-1,183,185,-1,187,189,191,-1,193,195,197,199,-1,-1,201,203,205,-1,-1,207,209,-1,211,213,-1,215,-1,-1,217,219,221,223,-1,-1,225,227,229,231,233,235,237,239,241,243,245,247,249,251,253,255,-1,257,-1,259,-1,261,263,265,267,269,271,-1,273,275,277,279,281,283,285,287,289,-1,-1,-1,-1,-1,-1,-1,-1,-1,-1,-1,-1,-1,-1,-1,-1,-1,-1,-1,-1,-1,-1,-1,-1,-1,-1,-1,-1,-1,-1,-1,-1,-1,-1,-1,-1,-1,-1,-1,-1,-1,-1,-1,-1,-1,-1,-1,-1,-1,-1,-1,-1,-1,-1,-1,-1,-1,-1,-1,-1,-1,-1,-1,-1,-1,-1,-1,-1,-1,-1,-1,-1,-1,-1,-1,-1,-1,-1,-1,-1,-1,-1,-1,-1,-1,-1,-1,-1,-1,-1,-1,-1,-1,-1,-1,-1,-1,-1,-1,-1,-1,-1,-1,-1,-1,-1,-1,-1,-1],"loss_changes":[1.2584912E7,2.36841E5,4.193165E5,9.2395E5,4.8826E4,1.0092E5,2.2687338E5,8.2784625E4,3.450245E5,3.1526E4,1.2571662E4,5.1713E4,7.80079E4,8.3218125E3,1.3149948E5,1.5610625E3,1.2758486E5,0E0,3.6070816E4,1.261662E4,2.4049E4,4.3146143E3,7.950955E3,6.753325E4,5.6647E4,1.0182912E4,4.2406016E3,5.29875E3,1.5990599E3,3.304027E4,2.203375E4,1.70125E2,1.3322046E4,9.53625E4,7.23675E3,1.9701172E2,3.8383625E4,3.2468293E3,6.9077363E3,0E0,1.31045E4,7.55077E2,0E0,7.590159E3,4.0348706E3,1.33730625E4,5.1081312E4,2.8652E4,1.173785E5,7.9931636E3,0E0,0E0,1.5438353E3,5.629006E3,5.240375E3,0E0,9.4336426E1,6.2665625E3,2.489755E4,1.973975E4,1.0252222E3,9.94375E1,0E0,1.6683574E3,0E0,1.19352875E5,1.6577031E3,2.8053438E3,7.38227E3,1.3064453E2,0E0,1.1733801E4,3.6552344E2,0E0,1.123602E3,6.413447E3,0E0,9.799E3,4.4673438E4,3.8171265E1,0E0,0E0,6.810622E3,3.1305557E3,3.6229639E3,1.0534344E4,2.199625E3,1.8075672E4,2.1256125E4,1.212925E4,1.049E3,1.0431835E4,2.266425E4,5.3595146E3,9.249015E3,0E0,0E0,0E0,5.204445E3,1.217625E3,4.950914E3,0E0,0E0,5.2439844E3,0E0,1.5530096E4,1.0740251E4,1.405064E4,1.7013594E4,0E0,3.5145898E2,0E0,5.725E1,4.562539E2,0E0,7.298609E4,8.260773E3,3.8570312E1,0E0,1.5617188E2,9.138164E3,8.160181E1,3.7862505E3,0E0,0E0,1.0059564E4,8.0023203E3,2.177539E1,0E0,0E0,5.811157E2,3.8833777E3,0E0,5.2053312E4,3.887E3,0E0,6.876453E3,0E0,0E0,3.2536858E3,7.0386895E3,5.1133765E3,4.9146484E2,0E0,0E0,1.8464906E4,6.675328E3,3.381753E3,2.13275E3,1.7563082E4,3.9231602E3,1.7289531E3,2.3142219E4,1.08485E4,1.1399125E4,4.487338E3,6.7675E2,3.1359116E3,9.393525E3,3.9325625E4,1.105075E4,0E0,4.441422E3,0E0,5.2119854E3,0E0,5.3914663E3,3.5415986E3,1.19725E3,5.3353853E3,3.1587266E3,4.553176E3,0E0,2.1880338E4,3.6986875E3,3.942537E3,8.328296E3,7.5432256E3,7.534385E3,4.2690938E3,1.2114266E4,1.9158008E2,0E0,0E0,0E0,0E0,0E0,0E0,0E0,0E0,0E0,0E0,0E0,0E0,0E0,0E0,0E0,0E0,0E0,0E0,0E0,0E0,0E0,0E0,0E0,0E0,0E0,0E0,0E0,0E0,0E0,0E0,0E0,0E0,0E0,0E0,0E0,0E0,0E0,0E0,0E0,0E0,0E0,0E0,0E0,0E0,0E0,0E0,0E0,0E0,0E0,0E0,0E0,0E0,0E0,0E0,0E0,0E0,0E0,0E0,0E0,0E0,0E0,0E0,0E0,0E0,0E0,0E0,0E0,0E0,0E0,0E0,0E0,0E0,0E0,0E0,0E0,0E0,0E0,0E0,0E0,0E0,0E0,0E0,0E0,0E0,0E0,0E0,0E0,0E0,0E0,0E0,0E0,0E0,0E0,0E0,0E0,0E0,0E0,0E0,0E0,0E0,0E0,0E0,0E0,0E0,0E0,0E0,0E0,0E0,0E0],"parents":[2147483647,0,0,1,1,2,2,3,3,4,4,5,5,6,6,7,7,8,8,9,9,10,10,11,11,12,12,13,13,14,14,15,15,16,16,18,18,19,19,20,20,21,21,22,22,23,23,24,24,25,25,26,26,27,27,28,28,29,29,30,30,31,31,32,32,33,33,34,34,35,35,36,36,37,37,38,38,40,40,41,41,43,43,44,44,45,45,46,46,47,47,48,48,49,49,52,52,53,53,54,54,56,56,57,57,58,58,59,59,60,60,61,61,63,63,65,65,66,66,67,67,68,68,69,69,71,71,72,72,74,74,75,75,77,77,78,78,79,79,82,82,83,83,84,84,85,85,86,86,87,87,88,88,89,89,90,90,91,91,92,92,93,93,94,94,98,98,99,99,100,100,103,103,105,105,106,106,107,107,108,108,110,110,112,112,113,113,115,115,116,116,117,117,119,119,120,120,121,121,122,122,125,125,126,126,127,127,130,130,131,131,133,133,134,134,136,136,139,139,140,140,141,141,142,142,145,145,146,146,147,147,148,148,149,149,150,150,151,151,152,152,153,153,154,154,155,155,156,156,157,157,158,158,159,159,160,160,162,162,164,164,166,166,167,167,168,168,169,169,170,170,171,171,173,173,174,174,175,175,176,176,177,177,178,178,179,179,180,180,181,181],"right_children":[2,4,6,8,10,12,14,16,18,20,22,24,26,28,30,32,34,-1,36,38,40,42,44,46,48,50,52,54,56,58,60,62,64,66,68,70,72,74,76,-1,78,80,-1,82,84,86,88,90,92,94,-1,-1,96,98,100,-1,102,104,106,108,110,112,-1,114,-1,116,118,120,122,124,-1,126,128,-1,130,132,-1,134,136,138,-1,-1,140,142,144,146,148,150,152,154,156,158,160,162,164,-1,-1,-1,166,168,170,-1,-1,172,-1,174,176,178,180,-1,182,-1,184,186,-1,188,190,192,-1,194,196,198,200,-1,-1,202,204,206,-1,-1,208,210,-1,212,214,-1,216,-1,-1,218,220,222,224,-1,-1,226,228,230,232,234,236,238,240,242,244,246,248,250,252,254,256,-1,258,-1,260,-1,262,264,266,268,270,272,-1,274,276,278,280,282,284,286,288,290,-1,-1,-1,-1,-1,-1,-1,-1,-1,-1,-1,-1,-1,-1,-1,-1,-1,-1,-1,-1,-1,-1,-1,-1,-1,-1,-1,-1,-1,-1,-1,-1,-1,-1,-1,-1,-1,-1,-1,-1,-1,-1,-1,-1,-1,-1,-1,-1,-1,-1,-1,-1,-1,-1,-1,-1,-1,-1,-1,-1,-1,-1,-1,-1,-1,-1,-1,-1,-1,-1,-1,-1,-1,-1,-1,-1,-1,-1,-1,-1,-1,-1,-1,-1,-1,-1,-1,-1,-1,-1,-1,-1,-1,-1,-1,-1,-1,-1,-1,-1,-1,-1,-1,-1,-1,-1,-1,-1,-1],"split_conditions":[2.026E3,4.829E3,1.0127E2,4.784E3,2E1,7.922E3,5.094E3,4.121E3,4.814E3,3E0,1.8014E4,5.311E3,8.111E3,2E0,2.4206E4,2E0,4.131E3,-8.843092E-1,5.4881E4,-1.1789E2,8.47E2,1.78E2,1.4E2,5.094E3,5.651E3,2E1,1.8E1,1.1567E2,3.7131E4,5.311E3,2E0,6.693E4,1E0,8.0107E4,2E1,2E0,7.3706E4,2.653E3,6.6E1,-8.836235E-1,6.3E3,3.7822014E-4,-8.838389E-1,5.261E3,5.912E3,4.214E3,6.0569E4,5.499E3,5.719E3,8.011E3,-8.834118E-1,-8.842456E-1,9.3E1,1.2E1,2.2084E2,-8.7513393E-1,1.03262E5,2E1,1.7952E2,5.311E3,1.0936E2,2.5E1,-7.95589E-1,2.465E3,-8.831415E-1,4.125E1,8.2981E4,4.722E3,4.511E3,1E0,-8.0613947E-1,2.0228E2,-7.363E1,-8.7979305E-1,5.211E3,3E0,-8.839024E-1,1.8215E4,7.011E3,3.558E3,-8.6502504E-1,-8.834378E-1,5.411E3,5.045E3,1.2618E4,2.1842E4,9.766E3,1.8E1,6.06E4,1E1,3.9E1,-1.1746E2,1.7E1,1.4093E4,8.041E3,4.525092E-1,-8.760401E-1,-8.839682E-1,3.096E3,5.9E1,2.4731E2,4.5326594E-1,-7.406595E-1,4.401E3,-8.8212156E-1,8.011E3,7.996E3,5.8215E4,5.621E3,-8.6831313E-1,1.42314E5,-7.4570704E-1,1E0,1.742E3,-8.7424225E-1,8.94E0,5.035E1,3.493E1,-8.7392354E-1,4.511E3,1E0,4.5886207E-2,4.8E1,-7.730692E-1,4.540003E-1,2.987E1,1.4420474E-2,2E0,-8.397233E-1,-8.702536E-1,5.445638E15,5.19E2,-8.832095E-1,5.193E3,5.045E3,-8.8399214E-1,7.801E3,4.525092E-1,-6.115143E-1,6.83E2,4.087E1,4.899E3,1.04692E5,4.50511E-1,-8.8245165E-1,4.112E3,4.074E1,9.811E1,6.890959E15,9E0,6.9E1,8E0,5.27E0,8.9069E4,6E0,1.48E2,6.167E3,5.27E0,8.797E3,9E0,2.080641E-4,-8.820611E-1,7E0,-8.8364154E-1,5.5478504E-3,-8.835044E-1,4.899E3,1.02E2,3.3E2,5.41E2,8.5E2,5E0,-8.8164985E-1,5.651E3,1.8E1,8E0,2.6570506E-2,3.579E3,1.97E3,5.83E2,5.812E3,8.7E1,-8.3869165E-1,4.4475058E-1,4.5402387E-1,-8.486054E-1,4.4387943E-1,1.6688573E-1,-7.0509046E-1,-1.3734861E-2,4.179894E-1,4.5359045E-1,-6.115143E-1,4.5356524E-1,4.1165742E-1,-8.826537E-1,3.7110338E-1,4.5264205E-1,-7.2304046E-1,2.7242267E-1,-8.834116E-1,7.599976E-2,-5.0187683E-1,-8.829204E-1,2.5645465E-1,4.5390752E-1,-5.072023E-1,4.2802247E-1,-8.5682076E-1,-8.813119E-1,3.002758E-1,-7.7273375E-1,3.825715E-1,3.918706E-1,4.3770525E-1,1.9650537E-1,3.8866565E-1,3.2409808E-1,-8.801474E-1,-7.60529E-2,-8.835475E-1,4.5176336E-1,-8.8237715E-1,4.3937528E-1,-8.5129607E-1,-8.071799E-1,-2.705463E-1,-8.644896E-1,-4.723434E-1,-8.822277E-1,4.2891875E-1,-8.6357784E-1,-3.5762152E-1,-5.648282E-1,-1.8656574E-1,-8.8415504E-1,-4.404683E-1,-8.576269E-1,-4.3055037E-1,9.5080845E-3,-6.045572E-1,-8.691435E-1,-5.707431E-1,-7.2654563E-1,-5.056107E-1,3.7698418E-1,-8.8362986E-1,-8.806548E-1,-7.978833E-1,-8.801028E-1,2.9805157E-1,-8.837379E-1,-1.0386824E-1,-8.289607E-1,-6.135328E-1,-3.6010325E-1,-8.343523E-1,-8.8148284E-1,2.6156676E-1,1.4384255E-1,-5.5424386E-1,8.160717E-2,-8.8298064E-1,2.1747687E-1,-8.8339496E-1,-6.034514E-1,-8.8429767E-1,-8.8360494E-1,-1.285564E-1,-7.8551203E-1,3.96425E-2,-8.812025E-1,3.2489517E-1,-4.7691402E-1,4.138974E-2,2.0074281E-1,-7.9018855E-1,3.225373E-1,-8.80761E-1,-6.7257774E-1,7.588254E-2,1.22157015E-1,-8.8309664E-1,-7.184408E-1,-1.9886096E-1,-2.6652187E-1,-8.336522E-1,-4.6385508E-2,-5.0510573E-1,4.5229542E-1,-8.045588E-1],"split_indices":[5,6,2,6,29,6,6,6,6,29,4,6,6,21,15,3,6,0,4,14,4,31,2,6,6,29,29,2,15,6,21,26,24,4,29,3,4,32,9,0,6,34,0,6,6,6,4,6,6,6,0,0,17,29,2,0,17,29,2,6,2,8,0,32,0,2,4,6,6,3,0,2,14,0,6,33,0,4,6,4,0,0,6,6,15,15,16,29,4,29,32,14,29,15,6,0,0,0,1,9,2,0,0,32,0,6,6,4,6,0,17,0,3,31,0,2,2,2,0,6,3,34,23,0,0,2,34,3,0,0,22,23,0,6,6,0,6,0,0,23,13,6,16,0,0,6,2,2,22,29,9,19,2,4,30,1,31,2,4,29,34,0,29,0,34,0,6,23,32,23,18,29,0,6,23,33,34,32,10,18,6,26,0,0,0,0,0,0,0,0,0,0,0,0,0,0,0,0,0,0,0,0,0,0,0,0,0,0,0,0,0,0,0,0,0,0,0,0,0,0,0,0,0,0,0,0,0,0,0,0,0,0,0,0,0,0,0,0,0,0,0,0,0,0,0,0,0,0,0,0,0,0,0,0,0,0,0,0,0,0,0,0,0,0,0,0,0,0,0,0,0,0,0,0,0,0,0,0,0,0,0,0,0,0,0,0,0,0,0,0,0],"split_type":[0,0,0,0,0,0,0,0,0,0,0,0,0,0,0,0,0,0,0,0,0,0,0,0,0,0,0,0,0,0,0,0,0,0,0,0,0,0,0,0,0,0,0,0,0,0,0,0,0,0,0,0,0,0,0,0,0,0,0,0,0,0,0,0,0,0,0,0,0,0,0,0,0,0,0,0,0,0,0,0,0,0,0,0,0,0,0,0,0,0,0,0,0,0,0,0,0,0,0,0,0,0,0,0,0,0,0,0,0,0,0,0,0,0,0,0,0,0,0,0,0,0,0,0,0,0,0,0,0,0,0,0,0,0,0,0,0,0,0,0,0,0,0,0,0,0,0,0,0,0,0,0,0,0,0,0,0,0,0,0,0,0,0,0,0,0,0,0,0,0,0,0,0,0,0,0,0,0,0,0,0,0,0,0,0,0,0,0,0,0,0,0,0,0,0,0,0,0,0,0,0,0,0,0,0,0,0,0,0,0,0,0,0,0,0,0,0,0,0,0,0,0,0,0,0,0,0,0,0,0,0,0,0,0,0,0,0,0,0,0,0,0,0,0,0,0,0,0,0,0,0,0,0,0,0,0,0,0,0,0,0,0,0,0,0,0,0,0,0,0,0,0,0,0,0,0,0,0,0,0,0,0,0,0,0,0,0,0,0,0,0],"sum_hessian":[4.788859E6,3.1002612E6,1.6885976E6,7.900477E5,2.3102135E6,1.4379794E6,2.5061831E5,6.586389E5,1.3140884E5,2.286767E6,2.3446512E4,1.4001175E6,3.786193E4,6.615646E4,1.8446184E5,4.2293544E5,2.3570342E5,8.10737E4,5.0335152E4,7.9168086E3,2.2788502E6,2.1823018E3,2.126421E4,2.891297E5,1.1109878E6,2.5583578E4,1.2278352E4,6.5459074E4,6.9738824E2,1.06496195E5,7.796565E4,4.1245147E5,1.0483946E4,9.779024E4,1.3791319E5,1.8224715E4,3.2110438E4,3.0266167E3,4.8901924E3,1.2685067E3,2.2775818E6,3.455559E2,1.8367458E3,1.307824E4,8.18597E3,1.26984414E5,1.6214527E5,5.792046E5,5.317832E5,2.4610959E4,9.72619E2,1.1874066E4,4.0428516E2,6.7353613E3,5.8723715E4,9.52669E1,6.0212134E2,4.329956E4,6.319664E4,7.5193445E4,2.772198E3,4.1244253E5,8.966296E0,9.734588E3,7.493582E2,7.113067E4,2.6659568E4,1.3539636E5,2.5168137E3,1.8214402E4,1.0311241E1,2.313533E4,8.975108E3,1.9434447E2,2.8322722E3,2.7741462E3,2.116046E3,2.166009E6,1.1157266E5,3.0072443E2,4.4831482E1,1.00131116E3,1.2076929E4,7.4147393E3,7.7123083E2,4.8422293E4,7.856212E4,7.792129E4,8.422398E4,2.4114934E5,3.3805525E5,2.4862867E4,5.069203E5,1.7434447E4,7.1765117E3,2.9848285E2,1.058023E2,2.5116838E3,4.2236772E3,4.227612E4,1.6447594E4,5.969657E2,5.1556206E0,4.2898316E4,4.0124176E2,3.8278258E4,2.4918383E4,2.0313412E4,5.4880035E4,5.4246094E1,2.717952E3,5.379778E0,4.1243712E5,9.647839E3,8.674892E1,4.7065555E4,2.4065117E4,2.657551E4,8.405903E1,9.7319625E4,3.8076742E4,1.1993112E3,1.3175024E3,6.9488797E0,1.8207453E4,1.7952475E4,5.182856E3,8.956278E3,1.8829222E1,6.1867443E1,2.7704048E3,1.9788358E3,7.953105E2,1.6534447E5,2.0006645E6,2.695493E3,1.08877164E5,2.9848285E2,2.241574E0,4.508142E3,7.568787E3,1.0517811E3,6.3629585E3,2.9893115E2,4.7229965E2,2.338493E4,2.5037365E4,7.255027E2,7.783662E4,6.986199E4,8.059295E3,3.0844223E4,5.337975E4,9.17632E4,1.4938614E5,1.5965784E3,3.364587E5,6.9655884E3,1.789728E4,3.664222E5,1.4049811E5,3.904822E2,1.7043965E4,1.3023545E3,5.874157E3,1.0831285E3,3.1405488E3,1.3172783E3,4.0958844E4,3.8785698E3,1.2569023E4,4.2568133E4,3.3018387E2,3.3658117E4,4.620143E3,1.8452354E4,6.4660273E3,1.0247322E4,1.0066091E4,1.7078398E4,3.780164E4,2.699571E3,1.8380907E1,7.664393E4,3.3579322E5,2.3760685E1,9.624078E3,1.1400267E4,3.566529E4,5.04743E3,1.9017688E4,2.6573268E4,2.241574E0,8.838096E4,8.938665E3,5.2968396E2,3.754706E4,1.194828E3,4.483148E0,3.451076E2,9.7239484E2,3.327755E3,1.462472E4,6.3077893E2,4.5520767E3,8.954934E3,1.3449445E0,2.7392468E3,3.1157879E1,2.9297372E2,1.685862E3,3.586872E3,1.617576E5,1.8342938E5,1.8172351E6,2.069742E4,8.817974E4,4.29721E3,2.1093211E2,6.425136E3,1.1436511E3,5.976382E2,4.541429E2,6.33718E3,2.5778101E1,1.0367539E4,1.301739E4,2.0187969E4,4.8493955E3,4.2164008E2,3.0386264E2,7.707749E4,7.5912634E2,1.3755497E4,5.6106496E4,5.358259E3,2.7010364E3,2.9962932E4,8.812921E2,6.2569233E3,4.712283E4,7.902215E4,1.2741056E4,1.24068945E5,2.5317201E4,3.1641544E2,1.280163E3,3.272063E5,9.252355E3,2.0869055E2,6.756898E3,1.517994E3,1.6379286E4,1.0825495E5,2.5816723E5,4.5729146E3,1.359252E5,3.1068216E2,1.6733283E4,4.662233E3,1.2119243E3,2.481302E3,6.5924695E2,3.623677E2,9.549106E2,1.4244255E3,3.9534418E4,1.2355557E3,2.6430142E3,1.2136719E4,4.323048E2,2.826625E2,4.228547E4,1.078698E4,2.2871135E4,3.6797165E2,4.2521714E3,1.8204885E4,2.4746977E2,1.8897762E3,4.5762515E3,9.525535E3,7.2178687E2,4.8207637E3,5.2453267E3,1.293647E3,1.5784751E4,6.197616E3,3.1604021E4,2.689484E3,1.0087084E1],"tree_param":{"num_deleted":"0","num_feature":"36","num_nodes":"291","size_leaf_vector":"1"}},{"base_weights":[6.4394504E-2,1.0461848E0,-1.3454524E0,6.413338E-1,1.1911992E0,-1.4607968E0,-6.337411E-1,1.0580087E0,-1.0729178E0,1.2051153E0,-4.8908615E-3,-1.4980254E0,-6.874136E-1,-1.5840832E0,-2.6067683E-1,1.3103749E0,6.361975E-1,-5.413179E-1,3.24266E-1,-3.809393E-1,1.2114522E0,-2.9237998E-1,8.759765E-1,-1.2671831E0,-1.5591291E0,-1.5008938E-1,-1.187659E0,-1.6037815E0,7.488549E-1,2.4872209E-1,-9.2887133E-1,1.3195324E0,9.608687E-1,-4.5804497E-2,1.1869421E0,1.3218966E0,-1.5033929E-1,8.622093E-1,-1.0263196E0,-5.411024E-1,1.2136577E0,-5.4166985E-1,-8.5786596E-2,1.0844408E0,-5.410249E-1,-1.5897846E0,-1.0110795E0,-1.6499572E0,-1.3981482E0,3.1290814E-1,-5.4126865E-1,6.1457384E-1,-1.2885001E0,-1.2597674E0,-1.6887258E0,-5.384255E-1,1.2863277E0,8.099695E-1,-9.562327E-2,-1.2681425E0,-4.5239404E-1,1.3196257E0,-5.122723E-1,1.2420952E0,-5.4095095E-1,-4.6429124E-1,1.3108934E0,1.215399E0,-1.7317821E-1,1.3243203E0,-5.1586837E-1,-5.9929377E-1,1.3160598E0,-5.398969E-1,1.1006986E0,-3.5434285E-1,-5.4119E-1,1.2311833E0,8.8772345E-1,-1.6870177E0,1.2608753E-1,1.019232E-1,1.2700768E0,-1.3437968E0,-1.7405223E0,8.283434E-1,-1.0955983E0,-1.699881E0,-1.3786855E0,-1.3046343E0,-1.9307986E0,-1.6228684E0,4.8182592E-1,1.070404E0,-2.223404E0,-1.4727824E0,-1.6483682E-1,-8.471556E-1,-1.7410061E0,-9.3597335E-1,-1.743961E0,3.970867E-1,-4.927845E-1,3.7631205E-1,1.1281065E0,-3.9782807E-1,5.9675014E-1,-3.9750063E-1,-1.4315158E0,-2.8717473E-1,-2.1184669E0,1.3214555E0,1.213535E0,1.2785085E0,-5.381433E-1,-9.9444133E-1,1.037992E0,1.3240688E0,-5.380423E-1,1.3102041E0,9.831501E-1,1.3047259E0,-1.2356488E0,-5.044448E-1,3.9779225E-1,-1.4296877E0,-2.0692307E-1,1.32494E0,-5.2704144E-1,-2.129199E0,1.1878735E0,3.780003E-1,-2.0191486E0,9.9849117E-1,1.2510281E0,-5.412183E-1,9.722691E-1,1.3691537E0,-2.381985E0,2.817631E-1,-2.2166772E0,3.9602455E-1,-5.40052E-1,1.2898132E0,-2.0330338E0,-1.1556706E0,-1.9407932E0,-1.8117663E0,-1.5596331E0,1.0114655E0,-2.2192612E0,8.3174765E-1,-1.1779972E0,-1.801964E0,-1.6331768E0,-1.5940353E0,-1.1241057E0,-1.3808925E0,1.9087169E0,3.8522878E-1,-1.9507958E0,1.2355759E0,-2.0458305E0,5.936745E-1,-2.2486703E0,-6.7746043E-1,1.3367469E0,-5.9827423E-1,-7.0531577E-1,-1.5597599E0,6.9803387E-1,7.5579E-1,-1.1349262E0,7.5695566E-3,-1.6539211E0,9.406985E-1,-1.9061062E0,-1.5639161E0,2.1418881E-1,-1.4102882E0,-1.8416934E0,-2.9116554E0,4.5296887E-1,1.1410612E0,-5.428248E-1,-3.27689E-2,-1.0397657E0,6.946116E-1,-2.8152382E0,-1.6105444E0,1.1289924E-1,-1.0468084E0,-1.9621538E0,1.1695205E-1,-9.6197385E-1,-1.9570761E0,-2.2389665E0,-4.7212103E-1,3.9644969E-1,-1.1940281E0,3.9774632E-1,3.8723102E-1,-9.893111E-1,1.2552586E-1,-4.062516E-1,3.2710695E-1,-9.8475754E-1,3.973359E-1,-4.4062603E-1,3.973061E-1,3.519138E-1,-5.407976E-1,3.1004435E-1,3.9633766E-1,-4.8623204E-1,2.503343E-1,-5.60673E-1,2.519972E-1,-5.312207E-1,-1.9946904E-1,2.431592E-1,3.9769313E-1,-3.901247E-1,-5.333937E-1,-9.081471E-1,3.7029785E-1,-8.535718E-1,-5.402229E-1,2.618116E-1,-7.329442E-1,-5.4060435E-1,-4.6955207E-1,3.2168305E-1,3.3123502E-1,3.798587E-1,1.4990257E-1,3.2793176E-1,4.6467495E-1,-6.2926865E-1,-7.750141E-1,-5.730622E-1,1.1735562E-1,-5.787378E-1,-7.808341E-1,-5.502909E-1,-5.031058E-1,3.8980117E-1,-5.1963395E-1,-8.4432536E-1,-4.834179E-1,-2.7165958E-1,-6.776906E-1,-5.633599E-1,-1.6424523E-1,-5.4733145E-1,4.0121543E-1,-4.830041E-1,-6.6919625E-1,3.444323E-1,-7.0723754E-1,-6.1772346E-1,3.244092E-1,-7.1368337E-1,2.7237323E-1,-3.6765727E-1,-3.2630536E-1,-5.4473895E-1,-4.921574E-1,-1.3586076E-1,-4.078839E-1,-5.427511E-1,8.679837E-2,-4.1474268E-1,-4.850472E-1,-3.1594378E-1,5.7857287E-1,-5.7497776E-1,5.634425E-1,-5.980189E-1,-5.914778E-1,-1.3466312E-1,-5.9132403E-1,4.1703293E-1,-5.758416E-1,-8.159275E-1,2.1170288E-1,-4.261083E-1,-6.0848224E-1,-7.8509843E-1,-6.567419E-1,4.3646297E-1,-2.4233554E-1,-5.1695144E-1,3.6481914E-1,-5.6552625E-1,-7.879216E-1,3.2485217E-1,-7.039443E-1,8.133309E-3,1.766868E-1,-5.702677E-1,2.801331E-1,-5.7225615E-1,4.6932337E-1,-5.615133E-1,-6.8016595E-1,-5.677195E-1,3.289575E-1,-5.863392E-1,2.5635913E-1,-5.680457E-1,-5.191146E-1,-1.424099E-1,-5.4555094E-1,-5.9276575E-1,-9.561758E-1,-5.387038E-1,1.7539561E-1,-3.647927E-1,-7.1465895E-2,3.4983522E-1,-2.0751844E-1,2.8543657E-1,-2.02392E-1,-7.179099E-1,-4.3368486E-1,2.3839076E-1,-5.6749463E-1,-9.0002215E-1,-6.3648087E-1,3.3596355E-1,-3.8859928E-1,2.1739753E-1,-5.449147E-1,-1.796748E-1,3.838307E-1,-6.0670763E-1,-2.0043872E-1,1.3495646E-1,-3.382739E-1,4.0138164E-1,-5.67222E-1,-6.325209E-1,-8.5120237E-1,-6.6073346E-1],"categories":[],"categories_nodes":[],"categories_segments":[],"categories_sizes":[],"default_left":[0,0,0,0,0,0,0,0,0,0,0,0,0,0,0,0,0,0,0,0,0,0,0,0,0,0,0,0,0,0,0,0,0,0,0,0,0,0,0,0,0,0,0,0,0,0,0,0,0,0,0,0,0,0,0,0,0,0,0,0,0,0,0,0,0,0,0,0,0,0,0,0,0,0,0,0,0,0,0,0,0,0,0,0,0,0,0,0,0,0,0,0,0,0,0,0,0,0,0,0,0,0,0,0,0,0,0,0,0,0,0,0,0,0,0,0,0,0,0,0,0,0,0,0,0,0,0,0,0,0,0,0,0,0,0,0,0,0,0,0,0,0,0,0,0,0,0,0,0,0,0,0,0,0,0,0,0,0,0,0,0,0,0,0,0,0,0,0,0,0,0,0,0,0,0,0,0,0,0,0,0,0,0,0,0,0,0,0,0,0,0,0,0,0,0,0,0,0,0,0,0,0,0,0,0,0,0,0,0,0,0,0,0,0,0,0,0,0,0,0,0,0,0,0,0,0,0,0,0,0,0,0,0,0,0,0,0,0,0,0,0,0,0,0,0,0,0,0,0,0,0,0,0,0,0,0,0,0,0,0,0,0,0,0,0,0,0,0,0,0,0,0,0,0,0,0,0,0,0,0,0,0,0,0,0,0,0,0,0,0,0,0,0,0,0,0,0,0,0,0,0,0,0,0,0,0,0,0,0,0,0,0,0,0,0,0,0,0,0,0,0,0,0,0,0,0,0,0,0,0,0,0,0,0,0,0,0,0,0,0,0,0,0,0,0],"id":1,"left_children":[1,3,5,7,9,11,13,15,17,19,21,23,25,27,29,31,33,-1,35,37,39,41,43,45,47,49,51,53,55,57,59,61,63,65,67,69,71,73,75,-1,77,-1,79,81,-1,83,85,87,89,91,-1,93,95,97,99,-1,101,103,105,107,109,111,-1,113,-1,115,117,119,121,123,-1,125,127,-1,129,131,-1,133,135,137,139,141,143,145,147,149,151,153,155,157,159,161,163,165,167,169,171,173,175,177,179,-1,-1,181,183,185,187,189,191,193,195,197,199,201,-1,203,205,207,-1,209,211,213,215,-1,-1,217,219,221,-1,223,225,227,229,231,233,-1,235,237,239,241,243,-1,-1,245,247,249,251,253,255,257,259,261,263,265,267,269,271,273,275,277,279,281,283,285,287,-1,289,-1,-1,291,293,295,297,299,301,303,305,307,309,311,313,315,317,319,-1,321,323,325,327,329,331,333,335,337,339,341,343,-1,-1,-1,-1,-1,-1,-1,-1,-1,-1,-1,-1,-1,-1,-1,-1,-1,-1,-1,-1,-1,-1,-1,-1,-1,-1,-1,-1,-1,-1,-1,-1,-1,-1,-1,-1,-1,-1,-1,-1,-1,-1,-1,-1,-1,-1,-1,-1,-1,-1,-1,-1,-1,-1,-1,-1,-1,-1,-1,-1,-1,-1,-1,-1,-1,-1,-1,-1,-1,-1,-1,-1,-1,-1,-1,-1,-1,-1,-1,-1,-1,-1,-1,-1,-1,-1,-1,-1,-1,-1,-1,-1,-1,-1,-1,-1,-1,-1,-1,-1,-1,-1,-1,-1,-1,-1,-1,-1,-1,-1,-1,-1,-1,-1,-1,-1,-1,-1,-1,-1,-1,-1,-1,-1,-1,-1,-1,-1,-1,-1,-1,-1,-1,-1,-1,-1,-1,-1,-1,-1,-1,-1,-1,-1,-1,-1,-1,-1],"loss_changes":[6.198952E6,1.5499175E5,1.5092075E5,4.9731678E5,3.235375E4,4.554925E4,9.0902805E4,5.96225E4,1.3913797E5,1.9312E4,5.661678E3,2.12885E4,1.9530344E4,3.3227188E3,6.267116E4,1.120375E3,7.875247E4,0E0,2.2151248E4,6.136117E3,1.272825E4,5.269192E3,3.0747065E3,2.6099281E4,1.744825E4,2.6830848E4,6.8392734E3,2.0923281E3,8.305789E2,2.019139E4,1.287475E4,9.8625E1,6.9601475E3,5.318371E4,4.4897812E3,1.1345508E2,2.087217E4,1.6612986E3,2.630039E3,0E0,1.092275E4,0E0,5.0320938E3,9.309263E2,0E0,5.1815938E3,2.7380328E4,1.033075E4,2.1440562E4,8.951167E3,0E0,2.5825767E3,7.3786367E3,2.817541E3,2.3881875E3,0E0,5.687262E1,5.4803164E3,1.3548549E4,6.616578E3,9.118127E3,6.4625E1,0E0,9.005E2,0E0,5.701793E4,9.0558203E2,2.5004062E3,3.7356714E3,7.714453E1,0E0,7.9081826E3,2.0511133E2,0E0,6.7814844E2,3.2948616E3,0E0,8.37875E3,2.220996E4,3.6846606E3,4.778222E3,1.8845232E3,2.825171E2,5.9641875E3,1.1142812E3,4.3202397E3,2.6741E4,4.385E3,6.5000938E3,8.973944E4,2.9782656E3,2.658809E3,7.69021E3,1.5271605E3,3.3950195E0,5.7813203E3,4.485808E3,5.2720137E3,2.9029258E3,2.8397068E3,1.7435938E3,0E0,0E0,4.238828E3,8.7408594E2,1.056344E4,6.5714775E3,4.551875E3,7.994203E3,8.219229E3,5.3739258E1,4.4375E1,3.3887842E3,4.5479785E2,0E0,2.689543E4,4.22851E3,2.5535156E1,0E0,1.5501562E2,4.6203516E3,4.9881226E1,1.8158264E3,0E0,0E0,6.0303574E3,7.681924E3,1.54140625E1,0E0,1.4618835E1,4.4136157E2,2.0249365E3,7.1604004E1,2.6978562E4,3.72475E3,0E0,5.4025312E3,2.037644E2,1.2927441E2,2.9725852E3,1.15746826E2,0E0,0E0,1.2279248E2,1.2126083E0,4.6036016E3,2.5059375E2,9.952344E2,3.5781094E3,3.236232E3,4.861084E0,5.5356816E3,1.60090625E4,2.514E3,3.3793125E3,3.237625E3,1.984886E4,2.7659E4,6.486367E2,1.961017E3,1.9900469E3,1.4338202E2,1.5779004E2,5.456841E3,7.513135E1,0E0,6.6645483E2,0E0,0E0,3.6155703E3,1.58133E3,2.8536155E3,3.4431958E3,4.121296E3,2.5828066E3,6.706974E2,2.6267578E1,2.6445098E3,1.8765953E3,3.6333047E3,1.2528125E2,1.1212622E2,3.611633E3,7.8874414E2,0E0,1.8637979E4,8.072801E3,4.0958027E3,8.80083E1,3.0405522E3,4.459532E3,7.8266562E3,3.2152344E3,4.9271396E3,4.301325E3,8.91748E0,3.0992188E1,0E0,0E0,0E0,0E0,0E0,0E0,0E0,0E0,0E0,0E0,0E0,0E0,0E0,0E0,0E0,0E0,0E0,0E0,0E0,0E0,0E0,0E0,0E0,0E0,0E0,0E0,0E0,0E0,0E0,0E0,0E0,0E0,0E0,0E0,0E0,0E0,0E0,0E0,0E0,0E0,0E0,0E0,0E0,0E0,0E0,0E0,0E0,0E0,0E0,0E0,0E0,0E0,0E0,0E0,0E0,0E0,0E0,0E0,0E0,0E0,0E0,0E0,0E0,0E0,0E0,0E0,0E0,0E0,0E0,0E0,0E0,0E0,0E0,0E0,0E0,0E0,0E0,0E0,0E0,0E0,0E0,0E0,0E0,0E0,0E0,0E0,0E0,0E0,0E0,0E0,0E0,0E0,0E0,0E0,0E0,0E0,0E0,0E0,0E0,0E0,0E0,0E0,0E0,0E0,0E0,0E0,0E0,0E0,0E0,0E0,0E0,0E0,0E0,0E0,0E0,0E0,0E0,0E0,0E0,0E0,0E0,0E0,0E0,0E0,0E0,0E0,0E0,0E0,0E0,0E0,0E0,0E0,0E0,0E0,0E0,0E0,0E0,0E0,0E0,0E0,0E0,0E0,0E0,0E0,0E0,0E0,0E0,0E0],"parents":[2147483647,0,0,1,1,2,2,3,3,4,4,5,5,6,6,7,7,8,8,9,9,10,10,11,11,12,12,13,13,14,14,15,15,16,16,18,18,19,19,20,20,21,21,22,22,23,23,24,24,25,25,26,26,27,27,28,28,29,29,30,30,31,31,32,32,33,33,34,34,35,35,36,36,37,37,38,38,40,40,42,42,43,43,45,45,46,46,47,47,48,48,49,49,51,51,52,52,53,53,54,54,56,56,57,57,58,58,59,59,60,60,61,61,63,63,65,65,66,66,67,67,68,68,69,69,71,71,72,72,74,74,75,75,77,77,78,78,79,79,80,80,81,81,82,82,83,83,84,84,85,85,86,86,87,87,88,88,89,89,90,90,91,91,92,92,93,93,94,94,95,95,96,96,97,97,98,98,99,99,100,100,103,103,104,104,105,105,106,106,107,107,108,108,109,109,110,110,111,111,112,112,113,113,115,115,116,116,117,117,119,119,120,120,121,121,122,122,125,125,126,126,127,127,129,129,130,130,131,131,132,132,133,133,134,134,136,136,137,137,138,138,139,139,140,140,143,143,144,144,145,145,146,146,147,147,148,148,149,149,150,150,151,151,152,152,153,153,154,154,155,155,156,156,157,157,158,158,159,159,160,160,161,161,162,162,163,163,164,164,166,166,169,169,170,170,171,171,172,172,173,173,174,174,175,175,176,176,177,177,178,178,179,179,180,180,181,181,182,182,183,183,185,185,186,186,187,187,188,188,189,189,190,190,191,191,192,192,193,193,194,194,195,195,196,196],"right_children":[2,4,6,8,10,12,14,16,18,20,22,24,26,28,30,32,34,-1,36,38,40,42,44,46,48,50,52,54,56,58,60,62,64,66,68,70,72,74,76,-1,78,-1,80,82,-1,84,86,88,90,92,-1,94,96,98,100,-1,102,104,106,108,110,112,-1,114,-1,116,118,120,122,124,-1,126,128,-1,130,132,-1,134,136,138,140,142,144,146,148,150,152,154,156,158,160,162,164,166,168,170,172,174,176,178,180,-1,-1,182,184,186,188,190,192,194,196,198,200,202,-1,204,206,208,-1,210,212,214,216,-1,-1,218,220,222,-1,224,226,228,230,232,234,-1,236,238,240,242,244,-1,-1,246,248,250,252,254,256,258,260,262,264,266,268,270,272,274,276,278,280,282,284,286,288,-1,290,-1,-1,292,294,296,298,300,302,304,306,308,310,312,314,316,318,320,-1,322,324,326,328,330,332,334,336,338,340,342,344,-1,-1,-1,-1,-1,-1,-1,-1,-1,-1,-1,-1,-1,-1,-1,-1,-1,-1,-1,-1,-1,-1,-1,-1,-1,-1,-1,-1,-1,-1,-1,-1,-1,-1,-1,-1,-1,-1,-1,-1,-1,-1,-1,-1,-1,-1,-1,-1,-1,-1,-1,-1,-1,-1,-1,-1,-1,-1,-1,-1,-1,-1,-1,-1,-1,-1,-1,-1,-1,-1,-1,-1,-1,-1,-1,-1,-1,-1,-1,-1,-1,-1,-1,-1,-1,-1,-1,-1,-1,-1,-1,-1,-1,-1,-1,-1,-1,-1,-1,-1,-1,-1,-1,-1,-1,-1,-1,-1,-1,-1,-1,-1,-1,-1,-1,-1,-1,-1,-1,-1,-1,-1,-1,-1,-1,-1,-1,-1,-1,-1,-1,-1,-1,-1,-1,-1,-1,-1,-1,-1,-1,-1,-1,-1,-1,-1,-1,-1],"split_conditions":[2.026E3,4.829E3,1.0127E2,4.784E3,2E1,7.542E3,5.094E3,4.121E3,4.814E3,3E0,1.7952E2,5.311E3,1.4E1,2E0,4.8277E4,2E0,4.131E3,-5.413179E-1,5.4881E4,-1.1789E2,8.47E2,5.261E3,5.912E3,5.094E3,3.447E1,8.111E3,1.9686716E-4,3.64E3,3.7131E4,5.311E3,1.5728E2,6.693E4,1E0,8.0107E4,2E1,2E0,7.3706E4,2.653E3,6.6E1,-5.411024E-1,6.3E3,-5.4166985E-1,1.544E3,5.045E3,-5.410249E-1,4.214E3,5.211E3,6E0,5.941E3,8E0,-5.4126865E-1,5.8481E4,6.288E1,2.298E3,1.0936E2,-5.384255E-1,1.03262E5,1.4473E2,2.6570506E-2,1E0,3.884E3,2E1,-5.122723E-1,2.465E3,-5.4095095E-1,4.441E1,8.2981E4,4.722E3,4.511E3,1E0,-5.1586837E-1,2.158E3,-7.363E1,-5.398969E-1,1.0792E4,-8.301E1,-5.4119E-1,1.8215E4,7.011E3,3.2087103E14,2E0,4.899E3,8.1E2,8.3385E4,-8.134E1,3.465E3,1.66E0,1E0,5.651E3,5.921E3,2.004E3,1.1E1,3.988E3,-9.212E1,1.7E1,4.732E1,2.9485E4,2.011E3,-1.2328E2,1.1E1,6.68E2,3.970867E-1,-4.927845E-1,-1E0,4.401E3,5.1555E4,8.099E3,8.82E2,3.1518E4,1.4E1,5.621E3,2.5E1,1E0,2E1,-5.381433E-1,8.94E0,2E1,3.493E1,-5.380423E-1,4.511E3,1E0,4.5886207E-2,5.8537167E-3,-5.044448E-1,3.9779225E-1,7.816092E-4,6E0,2E0,-5.2704144E-1,5.045E3,7.21E3,5.22E2,3E0,5.193E3,5.045E3,-5.412183E-1,7.801E3,2E1,4.087E1,4.239E1,4.087E1,3.9602455E-1,-5.40052E-1,1.2322E4,1.08E3,4.112E3,2.0522E4,9.766E3,-8.132E1,1.278E3,6.0569E4,4.047E1,8.47E2,1.8E1,9.93E2,5.499E3,2.21E0,5.651E3,3.825E3,1.2550919E-3,3E0,5.5E1,8.041E3,8E0,7.922E3,-6.7746043E-1,1.829E3,-5.9827423E-1,-7.0531577E-1,6.4E1,2E0,5.0272914E15,3.969E1,5.8019E4,1.424E3,-2E0,1.1567E2,1.1649E4,7.01E2,6.46E2,2.2084E2,4.401E3,1.982E3,9.85E2,-5.428248E-1,4.4666E4,3.148E3,9.87E2,1.7952E2,9.1E1,2E0,4.964837E15,5.192E3,4E0,2E0,1.97E3,5.812E3,-4.7212103E-1,3.9644969E-1,-1.1940281E0,3.9774632E-1,3.8723102E-1,-9.893111E-1,1.2552586E-1,-4.062516E-1,3.2710695E-1,-9.8475754E-1,3.973359E-1,-4.4062603E-1,3.973061E-1,3.519138E-1,-5.407976E-1,3.1004435E-1,3.9633766E-1,-4.8623204E-1,2.503343E-1,-5.60673E-1,2.519972E-1,-5.312207E-1,-1.9946904E-1,2.431592E-1,3.9769313E-1,-3.901247E-1,-5.333937E-1,-9.081471E-1,3.7029785E-1,-8.535718E-1,-5.402229E-1,2.618116E-1,-7.329442E-1,-5.4060435E-1,-4.6955207E-1,3.2168305E-1,3.3123502E-1,3.798587E-1,1.4990257E-1,3.2793176E-1,4.6467495E-1,-6.2926865E-1,-7.750141E-1,-5.730622E-1,1.1735562E-1,-5.787378E-1,-7.808341E-1,-5.502909E-1,-5.031058E-1,3.8980117E-1,-5.1963395E-1,-8.4432536E-1,-4.834179E-1,-2.7165958E-1,-6.776906E-1,-5.633599E-1,-1.6424523E-1,-5.4733145E-1,4.0121543E-1,-4.830041E-1,-6.6919625E-1,3.444323E-1,-7.0723754E-1,-6.1772346E-1,3.244092E-1,-7.1368337E-1,2.7237323E-1,-3.6765727E-1,-3.2630536E-1,-5.4473895E-1,-4.921574E-1,-1.3586076E-1,-4.078839E-1,-5.427511E-1,8.679837E-2,-4.1474268E-1,-4.850472E-1,-3.1594378E-1,5.7857287E-1,-5.7497776E-1,5.634425E-1,-5.980189E-1,-5.914778E-1,-1.3466312E-1,-5.9132403E-1,4.1703293E-1,-5.758416E-1,-8.159275E-1,2.1170288E-1,-4.261083E-1,-6.0848224E-1,-7.8509843E-1,-6.567419E-1,4.3646297E-1,-2.4233554E-1,-5.1695144E-1,3.6481914E-1,-5.6552625E-1,-7.879216E-1,3.2485217E-1,-7.039443E-1,8.133309E-3,1.766868E-1,-5.702677E-1,2.801331E-1,-5.7225615E-1,4.6932337E-1,-5.615133E-1,-6.8016595E-1,-5.677195E-1,3.289575E-1,-5.863392E-1,2.5635913E-1,-5.680457E-1,-5.191146E-1,-1.424099E-1,-5.4555094E-1,-5.9276575E-1,-9.561758E-1,-5.387038E-1,1.7539561E-1,-3.647927E-1,-7.1465895E-2,3.4983522E-1,-2.0751844E-1,2.8543657E-1,-2.02392E-1,-7.179099E-1,-4.3368486E-1,2.3839076E-1,-5.6749463E-1,-9.0002215E-1,-6.3648087E-1,3.3596355E-1,-3.8859928E-1,2.1739753E-1,-5.449147E-1,-1.796748E-1,3.838307E-1,-6.0670763E-1,-2.0043872E-1,1.3495646E-1,-3.382739E-1,4.0138164E-1,-5.67222E-1,-6.325209E-1,-8.5120237E-1,-6.6073346E-1],"split_indices":[5,6,2,6,29,6,6,6,6,29,2,6,29,21,16,3,6,0,4,14,4,6,6,6,2,6,34,6,15,6,2,26,24,4,29,3,4,32,9,0,6,0,32,6,0,6,6,30,6,29,0,17,2,31,2,0,17,2,34,24,32,29,0,32,0,2,4,6,6,3,0,32,14,0,4,14,0,4,6,22,3,6,18,17,14,32,2,3,6,6,27,0,32,14,29,13,5,27,14,11,18,0,0,33,32,5,6,0,15,29,6,8,3,29,0,2,29,2,0,6,3,34,35,0,0,34,30,3,0,6,6,23,33,6,6,0,6,0,13,13,13,0,0,4,0,6,15,16,14,32,4,13,4,23,23,6,2,6,32,34,25,8,6,33,6,0,31,0,0,9,25,22,13,17,26,33,2,15,18,18,2,32,10,32,0,5,32,31,2,8,25,22,6,19,21,10,6,0,0,0,0,0,0,0,0,0,0,0,0,0,0,0,0,0,0,0,0,0,0,0,0,0,0,0,0,0,0,0,0,0,0,0,0,0,0,0,0,0,0,0,0,0,0,0,0,0,0,0,0,0,0,0,0,0,0,0,0,0,0,0,0,0,0,0,0,0,0,0,0,0,0,0,0,0,0,0,0,0,0,0,0,0,0,0,0,0,0,0,0,0,0,0,0,0,0,0,0,0,0,0,0,0,0,0,0,0,0,0,0,0,0,0,0,0,0,0,0,0,0,0,0,0,0,0,0,0,0,0,0,0,0,0,0,0,0,0,0,0,0,0,0,0,0,0,0],"split_type":[0,0,0,0,0,0,0,0,0,0,0,0,0,0,0,0,0,0,0,0,0,0,0,0,0,0,0,0,0,0,0,0,0,0,0,0,0,0,0,0,0,0,0,0,0,0,0,0,0,0,0,0,0,0,0,0,0,0,0,0,0,0,0,0,0,0,0,0,0,0,0,0,0,0,0,0,0,0,0,0,0,0,0,0,0,0,0,0,0,0,0,0,0,0,0,0,0,0,0,0,0,0,0,0,0,0,0,0,0,0,0,0,0,0,0,0,0,0,0,0,0,0,0,0,0,0,0,0,0,0,0,0,0,0,0,0,0,0,0,0,0,0,0,0,0,0,0,0,0,0,0,0,0,0,0,0,0,0,0,0,0,0,0,0,0,0,0,0,0,0,0,0,0,0,0,0,0,0,0,0,0,0,0,0,0,0,0,0,0,0,0,0,0,0,0,0,0,0,0,0,0,0,0,0,0,0,0,0,0,0,0,0,0,0,0,0,0,0,0,0,0,0,0,0,0,0,0,0,0,0,0,0,0,0,0,0,0,0,0,0,0,0,0,0,0,0,0,0,0,0,0,0,0,0,0,0,0,0,0,0,0,0,0,0,0,0,0,0,0,0,0,0,0,0,0,0,0,0,0,0,0,0,0,0,0,0,0,0,0,0,0,0,0,0,0,0,0,0,0,0,0,0,0,0,0,0,0,0,0,0,0,0,0,0,0,0,0,0,0,0,0,0,0,0,0,0,0,0,0,0,0,0,0,0,0,0,0,0,0,0,0,0,0,0,0],"sum_hessian":[4.478446E6,2.6400008E6,1.8384455E6,6.962411E5,1.9437596E6,1.5820479E6,2.5639756E5,5.601006E5,1.3614055E5,1.9214046E6,2.2354977E4,1.5093891E6,7.265883E4,7.227678E4,1.8412078E5,3.5043566E5,2.0966494E5,8.9358125E4,4.678242E4,7.64602E3,1.9137586E6,1.6854752E4,5.500225E3,3.1591644E5,1.1934726E6,3.503177E4,3.762706E4,7.167193E4,6.048507E2,1.0447487E5,7.9645914E4,3.414855E5,8.95014E3,9.367079E4,1.1599416E5,1.5080692E4,3.1701729E4,2.6128135E3,5.0332065E3,1.3982316E3,1.9123604E6,2.0237949E3,1.4830956E4,5.1037354E3,3.964896E2,1.3980514E5,1.761113E5,7.629785E5,4.3049412E5,2.7371293E4,7.6604785E3,1.9935309E3,3.5633527E4,1.419596E4,5.747597E4,1.05103935E2,4.9974677E2,3.972533E4,6.474954E4,4.6520082E4,3.3125836E4,3.4147556E5,9.958562E0,8.124105E3,8.2603485E2,7.1589086E4,2.2081697E4,1.13617125E5,2.3770342E3,1.5069249E4,1.1444255E1,2.427137E4,7.43036E3,2.1430716E2,2.3985063E3,2.700832E3,2.3323745E3,1.8147768E6,9.758371E4,1.7322882E3,1.3098668E4,8.113012E2,4.292434E3,5.3123367E4,8.668177E4,7.7361816E3,1.6837511E5,6.443834E5,1.1859517E5,3.6620534E5,6.4288766E4,2.196064E3,2.5175229E4,1.7181827E3,2.7534818E2,3.0612693E4,5.020833E3,7.644425E3,6.5515347E3,3.9303625E3,5.3545605E4,4.9400464E2,5.742137E0,1.6811498E4,2.2913832E4,4.5075543E4,1.9673996E4,7.3506694E3,3.916941E4,3.0138287E4,2.9875486E3,3.3567466E5,5.8008984E3,8.0283896E3,9.571525E1,5.2915684E4,1.8673406E4,2.1988945E4,9.2750404E1,8.067896E4,3.2938168E4,9.940606E2,1.3829735E3,7.7281065E0,1.50615205E4,7.787547E3,1.6483822E4,7.409516E3,2.0843552E1,6.2418755E1,2.3360874E3,1.8762487E3,8.245833E2,1.4261181E5,1.6721649E6,2.971031E3,9.461268E4,3.207585E2,1.4115298E3,1.2283327E4,8.153414E2,4.947529E2,3.1654834E2,4.267545E3,2.4889444E1,4.03965E4,1.2726864E4,6.2182062E4,2.449971E4,7.2983145E3,4.378673E2,6.902951E3,1.6147216E5,2.5464781E5,3.8973553E5,6.4244926E4,5.4350246E4,3.5771672E5,8.4886455E3,5.501769E2,6.373859E4,2.8281757E2,1.9132465E3,2.4185314E4,9.8991406E2,1.2674282E2,1.59144E3,1.0445395E2,1.7089421E2,2.9433664E4,1.1790294E3,2.5762043E3,2.4446287E3,3.7123638E3,3.9320613E3,3.7968286E2,6.171852E3,2.5421113E3,1.3882513E3,1.2133949E4,4.141166E4,3.8217667E2,1.642932E4,2.2813832E4,9.999956E1,2.8735307E4,1.6340237E4,1.912622E4,5.477749E2,2.1762712E3,5.1743984E3,2.2708756E4,1.6460656E4,1.8850088E4,1.1288199E4,1.2844583E3,1.7030903E3,4.4929795E0,3.3567016E5,1.22032265E2,5.678866E3,8.007652E3,2.0737862E1,1.0738702E4,4.217698E4,1.8450535E4,2.2287228E2,2.1986447E4,2.4980998E0,7.312642E4,7.552534E3,5.839135E2,3.2354252E4,9.8906464E2,4.9960294E0,3.2388693E2,1.0590865E3,1.0171217E3,6.7704253E3,1.1367472E4,5.116351E3,7.408026E3,1.4905045E0,4.701119E1,1.5407564E1,2.3101733E3,2.591415E1,3.4669968E2,1.529549E3,2.7579187E2,5.487915E2,3.9891638E3,1.3862266E5,1.5649034E5,1.5156745E6,1.9266459E4,7.534622E4,3.054718E2,1.52867E1,9.861016E2,4.2542813E2,1.1704849E4,5.784784E2,4.0280338E2,4.1253802E2,1.3095471E1,4.254449E3,2.0291618E1,4.5978274E0,1.4313537E4,2.6082965E4,2.0956677E3,1.0631196E4,6.175028E2,6.1564562E4,4.1834134E2,2.408137E4,2.94535E2,7.0037793E3,2.2770164E2,2.1016568E2,6.4056084E3,4.9734277E2,3.5967456E3,1.5787542E5,4.8392134E3,2.498086E5,3.8732397E5,2.4115889E3,3.0747807E4,3.3497117E4,8.399572E3,4.595067E4,2.0798961E5,1.4972711E5,8.445298E3,4.3348362E1,3.3815112E2,2.1202573E2,6.2867754E4,8.708377E2,1.2462351E1,2.7035522E2,1.614401E3,2.9884543E2,2.2911824E4,1.2734908E3,6.233957E2,3.665184E2,5.1022064E1,1.5404178E3,5.255453E3,2.417821E4,9.8252E2,1.965094E2,2.2652843E2,2.3496758E3,1.1963156E3,1.2483132E3,2.8460466E3,8.6631714E2,3.5071576E2,3.5813455E3,3.1112738E2,6.855549E1,2.1970338E2,5.9521484E3,3.2517648E2,2.2169348E3,1.0652175E3,3.2303378E2,9.040177E3,3.0937725E3,3.5322094E4,6.0895645E3,3.0499924E2,7.717744E1,1.5228417E4,1.2009036E3,4.0689102E2,2.2406941E4,1.721188E4,1.1523428E4,1.2869428E4,3.4708093E3,8.533597E2,1.8272861E4,9.3217514E1,4.5455737E2,1.8333438E3,3.4292746E2,1.566742E3,3.6076565E3,8.353176E3,1.4355579E4,2.997737E2,1.6160882E4,5.6127036E3,1.3237384E4,1.0530461E4,7.5773865E2,9.0238104E2,3.8207715E2,9.355685E1,1.6095336E3],"tree_param":{"num_deleted":"0","num_feature":"36","num_nodes":"345","size_leaf_vector":"1"}},{"base_weights":[6.837057E-2,9.328077E-1,-1.0230622E0,6.2083024E-1,1.0876284E0,-1.0860958E0,-2.3121345E-1,1.2024567E0,2.5028753E-1,1.0998005E0,1.2975365E-1,-1.3550321E0,-1.0092647E0,-1.1813334E0,1.3275626E-1,1.2113692E0,8.684884E-1,3.4636572E-1,-2.2853165E0,1.1230003E0,7.31529E-1,5.413809E-1,-4.3980113E-1,-1.1599345E0,-1.5392641E0,-9.414836E-1,-1.5154982E0,-1.2083006E0,9.709624E-1,5.6588465E-1,-4.040458E-1,1.1767422E0,3.6579812E-1,1.1284875E0,-4.4005582E-1,-1.7172515E-2,1.2297496E0,-2.4800386E0,1.4119995E0,7.8366107E-1,1.1447213E0,-4.4033584E-1,8.0164576E-1,-1.1324875E0,7.525116E-1,-1.0071914E0,3.869704E-1,-1.5274999E0,1.8229415E0,-2.344889E-1,-1.54674E0,-9.6367604E-1,4.384862E-1,1.3555801E0,-1.5243644E0,-9.911003E-1,-1.4499753E0,-4.3040636E-1,1.1968216E0,7.880271E-1,-5.8937156E-1,-9.811096E-1,-4.667183E-2,1.1846054E0,-3.8988595E0,-1.9014388E0,1.1602765E0,5.5246973E-1,-8.593538E-1,1.239948E0,-4.2723227E0,-1.8868536E0,-3.6428642E0,-3.8331048E0,1.7122653E0,1.1878545E0,-2.67556E-1,1.1583259E0,9.151601E-1,-1.5837924E-1,8.79084E-1,-1.7264925E0,3.8545713E-1,-2.0945745E0,8.231491E-1,2.637785E-1,-1.7848601E0,7.2700864E-1,-2.1953979E0,-1.5341876E0,1.1361395E0,-4.5470694E-1,1.9043065E0,2.5568957E0,-4.5472416E-1,-1.55053E0,7.8545725E-1,-1.0396749E0,-5.840658E-1,-1.6107204E0,6.7899376E-1,7.840894E-1,-4.7829932E-1,-1.539777E0,-5.7721317E-1,-1.1263992E0,6.154044E-2,-1.5211445E0,3.8835362E-1,3.6488074E-1,-3.4552896E-1,8.041509E-1,-2.746139E0,-1.2261192E0,3.774323E-1,-4.9262124E-1,-1.900362E0,1.4326002E-1,-1.8391228E0,1.1925434E0,-5.694793E-1,-1.6182855E0,-5.589462E-1,-2.9020884E0,-4.332526E-1,-3.152022E0,1.1750057E0,-2.1450581E-2,1.0638583E0,-4.4044024E-1,2.7689356E-1,-4.945663E0,3.7470844E-1,-4.961625E0,-4.309356E-1,4.5985114E-2,-2.1766448E0,-4.2420845E0,-1.3702912E0,-4.1618112E-1,-4.453897E0,9.876976E-1,8.307614E-1,1.193715E0,-4.788407E0,-1.920255E0,5.119954E-2,1.1756209E0,1.0131394E0,9.863878E-1,-3.353585E-1,-2.2627506E0,8.730904E-1,1.3069214E0,7.7864665E-1,-4.169684E-1,-1.8247616E0,-2.4817603E0,-1.78091E0,1.0690645E0,8.841971E-2,7.873427E-1,-2.0360997E0,-2.154779E0,4.0439552E-1,-2.1447852E0,9.355373E-1,-2.4092348E0,-4.6236727E-1,-1.5405613E0,-8.3082247E-1,-4.4897148E-1,4.9629256E-1,1.9501327E0,-4.5444515E-1,8.550475E-1,-4.446961E-1,-1.5401434E0,-1.75177E0,-4.973E-1,1.2858943E0,-4.8107588E-1,-1.0712515E0,-4.2023242E-1,-1.3131588E0,-1.7760102E0,-1.5689615E0,-4.9182382E-1,1.003462E0,-1.5552877E0,-7.69297E-1,1.3530469E0,-1.5996681E0,4.7178662E-1,-1.2364055E0,1.190856E0,-4.57556E-1,-1.4804931E0,-1.5669032E0,1.7043867E0,-4.5581254E-1,8.2155985E-1,-2.3275747E0,-6.5483105E-1,-2.946717E0,-1.8609285E-1,-2.0070553E0,7.6303875E-1,-2.283162E0,-1.6124083E-1,-1.7721444E0,-2.0387666E0,-1.7905596E0,2.744246E-1,-1.8702136E0,-1.9923657E0,-1.7421734E0,-1.5116096E0,3.5853124E-1,-5.791491E-1,-1.2695923E0,-1.2835062E0,-3.9785215E-1,3.5578838E-1,-8.626409E-1,-1.0360465E-1,3.6123487E-1,3.5916138E-1,2.2953793E-1,3.6448675E-1,-2.9048832E-2,-2.2964084E-1,-1.4900274E0,-2.7459598E-1,-1.495897E0,2.557427E-1,-5.756074E-1,-4.5988303E-1,-9.370035E-1,-1.3643316E0,1.7370106E-1,-6.110835E-1,1.658272E-1,-1.3902142E0,-2.917931E-1,-9.985484E-1,3.6731088E-1,3.620038E-1,-1.8922891E-2,-2.5851652E-1,-1.4553401E0,-2.785725E-1,-1.4310855E0,-1.4406455E0,3.3486545E-2,3.289975E-1,3.619669E-1,2.5980652E-3,3.5634908E-1,3.4497353E-1,2.2403112E-1,-1.5051147E0,1.3436198E-1,1.1593436E-1,-1.0591332E0,2.984038E-1,-1.3017113E0,3.9578828E-1,-1.0091236E0,-1.0524851E0,2.8274146E-1,-5.630704E-1,-4.3084192E-1,-5.555134E-1,-8.9381266E-1,-4.47679E-1,-5.820091E-1,3.467915E-1,-4.970685E-1,-7.820529E-1,1.7716801E-1,-6.9771427E-1,3.4233862E-1,-7.3166466E-1,-4.6981385E-1,-7.256879E-1,-4.7157165E-1,4.434096E-1,-7.457942E-1,-6.963997E-1,-4.5982465E-1,-7.162212E-1,3.2504454E-1,-5.3369606E-1,-7.8335404E-1,-4.6466884E-1,-3.0069637E-1,-4.6629447E-1,4.4119963E-1,5.9283614E-1,-4.6242404E-1,-4.907582E-1,-4.5571488E-1,-4.436848E-1,-5.9883636E-1,-2.82373E-1,3.9176872E-1,-4.5710433E-1,-9.441535E-2,-2.1680324E-1,-3.35336E-1,-3.2661578E-1,-7.0123985E-2,-4.5659378E-1,-1.6069108E-1,-4.633578E-1,-5.566284E-1,-4.553471E-1,-4.9415755E-1,2.136335E-1,-4.738457E-1,-8.372759E-2,3.8763037E-1,-2.2759193E-1,-4.693859E-1,-4.7946906E-1,3.8060445E-1,-4.5383653E-1,5.537823E-1,-5.295444E-1,-4.759364E-1,-4.8297012E-1,3.932918E-1,-4.5882356E-1,-2.873045E-1,-4.5635435E-1,5.300606E-1,-4.8616707E-1,-4.430154E-1,-5.2259386E-1,-4.5801997E-1,-4.4915023E-1,5.797E-1,1.4781645E-1,2.9329717E-1,-4.3091318E-1,-7.608309E-1,-9.2512226E-1,-6.052033E-1,-6.244725E-1,1.6457038E-1,-5.3694385E-1,-8.14457E-1,-6.7465264E-1,2.909706E-1,-8.887897E-1,-5.573052E-1,-3.126961E-1,2.2386312E-1,-5.8770764E-1,-4.796801E-1,-6.384014E-1,-4.925835E-1,-5.862094E-1,-5.2550155E-1,1.1481119E-1,-5.038258E-1,-5.744281E-1,-4.9389437E-1,-5.068236E-1,-6.1765516E-1,-5.354507E-1,-4.6578914E-1],"categories":[],"categories_nodes":[],"categories_segments":[],"categories_sizes":[],"default_left":[0,0,0,0,0,0,0,0,0,0,0,0,0,0,0,0,0,0,0,0,0,0,0,0,0,0,0,0,0,0,0,0,0,0,0,0,0,0,0,0,0,0,0,0,0,0,0,0,0,0,0,0,0,0,0,0,0,0,0,0,0,0,0,0,0,0,0,0,0,0,0,0,0,0,0,0,0,0,0,0,0,0,0,0,0,0,0,0,0,0,0,0,0,0,0,0,0,0,0,0,0,0,0,0,0,0,0,0,0,0,0,0,0,0,0,0,0,0,0,0,0,0,0,0,0,0,0,0,0,0,0,0,0,0,0,0,0,0,0,0,0,0,0,0,0,0,0,0,0,0,0,0,0,0,0,0,0,0,0,0,0,0,0,0,0,0,0,0,0,0,0,0,0,0,0,0,0,0,0,0,0,0,0,0,0,0,0,0,0,0,0,0,0,0,0,0,0,0,0,0,0,0,0,0,0,0,0,0,0,0,0,0,0,0,0,0,0,0,0,0,0,0,0,0,0,0,0,0,0,0,0,0,0,0,0,0,0,0,0,0,0,0,0,0,0,0,0,0,0,0,0,0,0,0,0,0,0,0,0,0,0,0,0,0,0,0,0,0,0,0,0,0,0,0,0,0,0,0,0,0,0,0,0,0,0,0,0,0,0,0,0,0,0,0,0,0,0,0,0,0,0,0,0,0,0,0,0,0,0,0,0,0,0,0,0,0,0,0,0,0,0,0,0,0,0,0,0,0,0,0,0,0,0,0,0,0,0,0,0,0,0,0,0,0,0,0,0,0,0,0,0,0,0,0,0,0,0,0,0,0,0,0,0,0,0,0,0,0,0,0,0,0,0],"id":2,"left_children":[1,3,5,7,9,11,13,15,17,19,21,23,25,27,29,31,33,35,37,39,41,43,45,47,49,51,53,55,57,59,61,63,-1,65,-1,67,69,71,73,75,77,-1,79,81,83,85,87,89,91,93,95,97,99,101,103,105,107,-1,109,111,113,115,117,119,121,123,125,127,129,131,133,135,137,139,141,143,145,147,149,151,153,155,-1,157,159,161,163,165,167,169,171,-1,173,175,-1,177,179,181,183,185,187,-1,-1,189,191,193,195,197,199,-1,-1,201,203,205,207,209,211,213,215,217,-1,-1,-1,219,-1,221,223,225,227,-1,229,231,-1,233,-1,235,237,239,241,-1,243,245,-1,247,249,251,253,255,257,259,261,263,265,267,269,-1,271,273,275,277,279,281,283,285,287,289,291,293,-1,295,297,-1,-1,299,-1,-1,-1,301,303,-1,305,307,309,311,313,315,317,319,321,323,325,327,329,331,333,335,-1,337,339,341,-1,343,345,-1,347,349,351,353,355,357,359,361,363,365,367,369,371,-1,-1,-1,-1,-1,-1,-1,-1,-1,-1,-1,-1,-1,-1,-1,-1,-1,-1,-1,-1,-1,-1,-1,-1,-1,-1,-1,-1,-1,-1,-1,-1,-1,-1,-1,-1,-1,-1,-1,-1,-1,-1,-1,-1,-1,-1,-1,-1,-1,-1,-1,-1,-1,-1,-1,-1,-1,-1,-1,-1,-1,-1,-1,-1,-1,-1,-1,-1,-1,-1,-1,-1,-1,-1,-1,-1,-1,-1,-1,-1,-1,-1,-1,-1,-1,-1,-1,-1,-1,-1,-1,-1,-1,-1,-1,-1,-1,-1,-1,-1,-1,-1,-1,-1,-1,-1,-1,-1,-1,-1,-1,-1,-1,-1,-1,-1,-1,-1,-1,-1,-1,-1,-1,-1,-1,-1,-1,-1,-1,-1,-1,-1,-1,-1,-1,-1,-1,-1,-1,-1,-1,-1,-1,-1,-1,-1,-1,-1,-1,-1,-1,-1,-1,-1,-1,-1],"loss_changes":[3.6556395E6,1.044335E5,8.5475125E4,1.5455134E5,1.6848125E4,3.2774125E4,4.3665863E4,8.295625E2,1.0671658E5,1.2190375E4,4.2515396E3,1.26668125E4,4.23325E4,2.0310742E3,2.1227066E4,7.346875E1,4.408271E3,1.355411E5,1.1517328E4,9.893375E3,1.3042086E4,3.7209946E3,3.5693008E3,1.8769245E5,1.7679062E3,3.33225E4,3.7104688E3,1.8116875E3,2.3716232E2,1.2967521E4,8.407777E3,2.0329453E3,0E0,6.3125684E2,0E0,1.4344723E5,6.909953E3,1.0472664E4,1.2676984E3,3.4314047E4,3.939125E3,0E0,6.0928477E3,1.6957867E3,1.8817349E3,4.460086E3,2.721066E3,2.7166562E3,5.1046367E3,3.701694E3,1.594375E3,3.0893312E4,8.488912E3,1.6705807E3,2.1193125E3,2.5914004E3,2.1393398E3,0E0,1.9519104E1,2.417162E3,5.017412E3,7.000659E3,8.572092E3,1.2440781E3,2.2997412E2,2.700914E1,4.1425977E2,5.2349473E4,8.3452945E4,6.904578E3,4.3833496E2,5.636414E3,6.9815625E3,6.0124084E1,5.7782886E2,2.0486172E3,1.1815734E4,2.989375E3,6.2877773E3,1.3281853E4,3.2577773E3,2.8794922E1,0E0,2.3099731E1,1.6481768E3,2.0650454E3,2.267917E3,1.6412899E3,4.672986E1,6.8028125E2,5.23963E2,0E0,2.8757031E3,3.8996948E2,0E0,3.7346875E2,3.6047327E2,1.573725E4,2.1336512E4,9.70166E0,5.8560386E3,0E0,0E0,1.7066562E3,4.594977E3,2.8351094E3,3.716866E3,2.6953125E1,1.534271E3,0E0,0E0,2.3019941E3,1.5342407E1,3.9905205E3,3.3225515E3,4.317415E3,7.857031E1,6.013198E3,3.236963E1,8.136328E2,0E0,0E0,0E0,1.8184158E1,0E0,4.013318E1,2.8929883E2,3.3362863E4,3.756336E3,0E0,1.4755639E4,1.2091797E1,0E0,1.3716309E1,0E0,2.0820342E3,5.327832E3,5.985992E3,1.3755852E3,0E0,1.7051086E1,4.6510577E2,0E0,9.495781E2,9.943848E0,1.0245023E4,5.5146255E3,2.59825E3,2.2246797E4,2.6159883E3,1.3953526E4,6.7607354E3,2.6066843E3,8.3758203E2,4.3139867E4,0E0,1.2095459E1,2.548175E1,3.0172424E0,1.6211143E3,3.09912E3,1.5407921E3,5.6395996E1,3.6496973E2,1.261957E3,1.6498413E1,1.2575535E3,2.9717896E1,0E0,6.743125E2,2.279182E3,0E0,0E0,1.6447031E3,0E0,0E0,0E0,3.43E2,5.853418E2,0E0,1.2090637E1,8.279694E3,1.36975625E4,1.8182494E4,5.320461E3,3.703247E0,3.3122559E0,4.3817695E3,4.468365E3,1.0402812E3,4.7695825E3,1.1418296E3,5.270996E-1,1.8171786E3,1.2304629E3,1.8956486E3,0E0,2.0234375E0,4.9291016E1,2.6670776E2,0E0,2.1531113E3,3.9747437E1,0E0,1.151123E1,2.9371584E3,4.2665332E2,1.7640656E3,1.1302417E2,6.4685327E3,6.46709E1,8.100488E1,1.5807617E1,4.5228545E3,1.0737305E1,1.5210205E1,9.241211E0,0E0,0E0,0E0,0E0,0E0,0E0,0E0,0E0,0E0,0E0,0E0,0E0,0E0,0E0,0E0,0E0,0E0,0E0,0E0,0E0,0E0,0E0,0E0,0E0,0E0,0E0,0E0,0E0,0E0,0E0,0E0,0E0,0E0,0E0,0E0,0E0,0E0,0E0,0E0,0E0,0E0,0E0,0E0,0E0,0E0,0E0,0E0,0E0,0E0,0E0,0E0,0E0,0E0,0E0,0E0,0E0,0E0,0E0,0E0,0E0,0E0,0E0,0E0,0E0,0E0,0E0,0E0,0E0,0E0,0E0,0E0,0E0,0E0,0E0,0E0,0E0,0E0,0E0,0E0,0E0,0E0,0E0,0E0,0E0,0E0,0E0,0E0,0E0,0E0,0E0,0E0,0E0,0E0,0E0,0E0,0E0,0E0,0E0,0E0,0E0,0E0,0E0,0E0,0E0,0E0,0E0,0E0,0E0,0E0,0E0,0E0,0E0,0E0,0E0,0E0,0E0,0E0,0E0,0E0,0E0,0E0,0E0,0E0,0E0,0E0,0E0,0E0,0E0,0E0,0E0,0E0,0E0,0E0,0E0,0E0,0E0,0E0,0E0,0E0,0E0,0E0,0E0,0E0,0E0,0E0,0E0,0E0,0E0,0E0,0E0,0E0,0E0,0E0,0E0,0E0,0E0],"parents":[2147483647,0,0,1,1,2,2,3,3,4,4,5,5,6,6,7,7,8,8,9,9,10,10,11,11,12,12,13,13,14,14,15,15,16,16,17,17,18,18,19,19,20,20,21,21,22,22,23,23,24,24,25,25,26,26,27,27,28,28,29,29,30,30,31,31,33,33,35,35,36,36,37,37,38,38,39,39,40,40,42,42,43,43,44,44,45,45,46,46,47,47,48,48,49,49,50,50,51,51,52,52,53,53,54,54,55,55,56,56,58,58,59,59,60,60,61,61,62,62,63,63,64,64,65,65,66,66,67,67,68,68,69,69,70,70,71,71,72,72,73,73,74,74,75,75,76,76,77,77,78,78,79,79,80,80,81,81,83,83,84,84,85,85,86,86,87,87,88,88,89,89,90,90,92,92,93,93,95,95,96,96,97,97,98,98,99,99,100,100,103,103,104,104,105,105,106,106,107,107,108,108,111,111,112,112,113,113,114,114,115,115,116,116,117,117,118,118,119,119,123,123,125,125,126,126,127,127,128,128,130,130,131,131,133,133,135,135,136,136,137,137,138,138,140,140,141,141,143,143,144,144,145,145,146,146,147,147,148,148,149,149,150,150,151,151,152,152,153,153,154,154,156,156,157,157,158,158,159,159,160,160,161,161,162,162,163,163,164,164,165,165,166,166,167,167,169,169,170,170,173,173,177,177,178,178,180,180,181,181,182,182,183,183,184,184,185,185,186,186,187,187,188,188,189,189,190,190,191,191,192,192,193,193,194,194,195,195,197,197,198,198,199,199,201,201,202,202,204,204,205,205,206,206,207,207,208,208,209,209,210,210,211,211,212,212,213,213,214,214,215,215,216,216],"right_children":[2,4,6,8,10,12,14,16,18,20,22,24,26,28,30,32,34,36,38,40,42,44,46,48,50,52,54,56,58,60,62,64,-1,66,-1,68,70,72,74,76,78,-1,80,82,84,86,88,90,92,94,96,98,100,102,104,106,108,-1,110,112,114,116,118,120,122,124,126,128,130,132,134,136,138,140,142,144,146,148,150,152,154,156,-1,158,160,162,164,166,168,170,172,-1,174,176,-1,178,180,182,184,186,188,-1,-1,190,192,194,196,198,200,-1,-1,202,204,206,208,210,212,214,216,218,-1,-1,-1,220,-1,222,224,226,228,-1,230,232,-1,234,-1,236,238,240,242,-1,244,246,-1,248,250,252,254,256,258,260,262,264,266,268,270,-1,272,274,276,278,280,282,284,286,288,290,292,294,-1,296,298,-1,-1,300,-1,-1,-1,302,304,-1,306,308,310,312,314,316,318,320,322,324,326,328,330,332,334,336,-1,338,340,342,-1,344,346,-1,348,350,352,354,356,358,360,362,364,366,368,370,372,-1,-1,-1,-1,-1,-1,-1,-1,-1,-1,-1,-1,-1,-1,-1,-1,-1,-1,-1,-1,-1,-1,-1,-1,-1,-1,-1,-1,-1,-1,-1,-1,-1,-1,-1,-1,-1,-1,-1,-1,-1,-1,-1,-1,-1,-1,-1,-1,-1,-1,-1,-1,-1,-1,-1,-1,-1,-1,-1,-1,-1,-1,-1,-1,-1,-1,-1,-1,-1,-1,-1,-1,-1,-1,-1,-1,-1,-1,-1,-1,-1,-1,-1,-1,-1,-1,-1,-1,-1,-1,-1,-1,-1,-1,-1,-1,-1,-1,-1,-1,-1,-1,-1,-1,-1,-1,-1,-1,-1,-1,-1,-1,-1,-1,-1,-1,-1,-1,-1,-1,-1,-1,-1,-1,-1,-1,-1,-1,-1,-1,-1,-1,-1,-1,-1,-1,-1,-1,-1,-1,-1,-1,-1,-1,-1,-1,-1,-1,-1,-1,-1,-1,-1,-1,-1,-1],"split_conditions":[2.026E3,5.045E3,1.4473E2,4.121E3,2E1,9E0,5.094E3,2E0,4.899E3,6.3E3,5.812E3,4.487E4,2E1,2E0,2.4206E4,1E0,1E0,4.829E3,3.58E2,1.0792E4,7.011E3,1.8014E4,7.78E2,4.4666E4,3.64E3,9.5403826E-1,5.4E1,4.8277E4,3.7131E4,8.011E3,1E0,2.465E3,3.6579812E-1,3E0,-4.4005582E-1,4.784E3,2E0,5.6431E4,2.013E3,9.932E3,2E0,-4.4033584E-1,3.0055E4,5.655E3,1E0,2.267E3,2.2E1,4.783E1,1E0,3.3E2,7.9E1,6E0,1E0,2.105E3,8.9E1,4.5164E4,9.8531E4,-4.3040636E-1,1.03262E5,2.2E1,2.8911E2,5.53E2,4.7524E4,2E1,2E1,2.465E3,8E0,4.131E3,4.814E3,1E0,2E1,2.353E1,1.9E1,1.8014E4,1.92E3,5.815E3,1.858E3,8.8459E4,-7.372E1,7.542E3,7.276E3,1.544E3,3.8545713E-1,4.087E1,8.641E4,4.8E1,8.28E2,2.502E3,4.074E1,3E0,8.3106655E-1,-4.5470694E-1,3.884E3,2.007E3,-4.5472416E-1,1.0127E2,1.4E2,1.0792E4,3.481E3,5.311E3,3.8501E4,7.840894E-1,-4.7829932E-1,1E0,9E1,3.3E2,1.191E3,2.2084E2,2.008E3,3.6488074E-1,-3.4552896E-1,4.57E3,5.655E3,2.4823E4,-8.495E1,3.195E3,1.4E1,1.2E1,1.4E1,3E0,-5.694793E-1,-1.6182855E0,-5.589462E-1,1.637E3,-4.332526E-1,2.465E3,2.5209E4,8.0107E4,4.722E3,-4.4044024E-1,5.4881E4,3E0,3.7470844E-1,3E0,-4.309356E-1,4.9E3,1.8014E4,9.5403826E-1,1.2E1,-4.1618112E-1,2E1,4.75E2,8.307614E-1,-7.13E1,3E0,1E0,6.06E2,2.393E1,8.8646E4,1E0,4.9E1,2E0,1.89E2,8.5077E4,7.801E3,-4.169684E-1,4.239E1,1.544E3,1.544E3,2E0,4.333E1,-8.812E1,4.087E1,4.087E1,1.2525E4,4.063E1,3.377E1,1.559E3,-4.6236727E-1,1E0,1.2086E2,-4.4897148E-1,4.9629256E-1,3E0,-4.5444515E-1,8.550475E-1,-4.446961E-1,5.311E3,5.094E3,-4.973E-1,8.797E3,3E0,1E0,1.415E3,3.1114E4,5.045E3,5.651E3,5.311E3,5.6097765E-2,2.7E1,8.9069E4,5.813E3,5.78E0,1.7536E4,5.1293254E15,1.006E3,-4.57556E-1,3.3E2,2.4731E2,6E0,-4.5581254E-1,1E0,5.311E3,-6.5483105E-1,8E0,2.741E3,2.6570506E-2,1.899E3,8.099E3,2.538E3,3.884E3,3.884E3,5.311E3,3.884E3,3.884E3,1.5728E2,3.884E3,-1.5116096E0,3.5853124E-1,-5.791491E-1,-1.2695923E0,-1.2835062E0,-3.9785215E-1,3.5578838E-1,-8.626409E-1,-1.0360465E-1,3.6123487E-1,3.5916138E-1,2.2953793E-1,3.6448675E-1,-2.9048832E-2,-2.2964084E-1,-1.4900274E0,-2.7459598E-1,-1.495897E0,2.557427E-1,-5.756074E-1,-4.5988303E-1,-9.370035E-1,-1.3643316E0,1.7370106E-1,-6.110835E-1,1.658272E-1,-1.3902142E0,-2.917931E-1,-9.985484E-1,3.6731088E-1,3.620038E-1,-1.8922891E-2,-2.5851652E-1,-1.4553401E0,-2.785725E-1,-1.4310855E0,-1.4406455E0,3.3486545E-2,3.289975E-1,3.619669E-1,2.5980652E-3,3.5634908E-1,3.4497353E-1,2.2403112E-1,-1.5051147E0,1.3436198E-1,1.1593436E-1,-1.0591332E0,2.984038E-1,-1.3017113E0,3.9578828E-1,-1.0091236E0,-1.0524851E0,2.8274146E-1,-5.630704E-1,-4.3084192E-1,-5.555134E-1,-8.9381266E-1,-4.47679E-1,-5.820091E-1,3.467915E-1,-4.970685E-1,-7.820529E-1,1.7716801E-1,-6.9771427E-1,3.4233862E-1,-7.3166466E-1,-4.6981385E-1,-7.256879E-1,-4.7157165E-1,4.434096E-1,-7.457942E-1,-6.963997E-1,-4.5982465E-1,-7.162212E-1,3.2504454E-1,-5.3369606E-1,-7.8335404E-1,-4.6466884E-1,-3.0069637E-1,-4.6629447E-1,4.4119963E-1,5.9283614E-1,-4.6242404E-1,-4.907582E-1,-4.5571488E-1,-4.436848E-1,-5.9883636E-1,-2.82373E-1,3.9176872E-1,-4.5710433E-1,-9.441535E-2,-2.1680324E-1,-3.35336E-1,-3.2661578E-1,-7.0123985E-2,-4.5659378E-1,-1.6069108E-1,-4.633578E-1,-5.566284E-1,-4.553471E-1,-4.9415755E-1,2.136335E-1,-4.738457E-1,-8.372759E-2,3.8763037E-1,-2.2759193E-1,-4.693859E-1,-4.7946906E-1,3.8060445E-1,-4.5383653E-1,5.537823E-1,-5.295444E-1,-4.759364E-1,-4.8297012E-1,3.932918E-1,-4.5882356E-1,-2.873045E-1,-4.5635435E-1,5.300606E-1,-4.8616707E-1,-4.430154E-1,-5.2259386E-1,-4.5801997E-1,-4.4915023E-1,5.797E-1,1.4781645E-1,2.9329717E-1,-4.3091318E-1,-7.608309E-1,-9.2512226E-1,-6.052033E-1,-6.244725E-1,1.6457038E-1,-5.3694385E-1,-8.14457E-1,-6.7465264E-1,2.909706E-1,-8.887897E-1,-5.573052E-1,-3.126961E-1,2.2386312E-1,-5.8770764E-1,-4.796801E-1,-6.384014E-1,-4.925835E-1,-5.862094E-1,-5.2550155E-1,1.1481119E-1,-5.038258E-1,-5.744281E-1,-4.9389437E-1,-5.068236E-1,-6.1765516E-1,-5.354507E-1,-4.6578914E-1],"split_indices":[5,6,2,6,29,29,6,3,6,6,6,5,29,21,15,3,24,6,2,4,6,4,23,5,6,34,9,16,15,6,21,32,0,33,0,6,3,4,27,4,3,0,4,6,3,1,29,13,3,32,9,30,33,4,8,16,5,0,17,29,2,23,15,29,29,32,29,6,6,3,29,2,29,4,0,6,32,4,14,6,6,32,0,13,4,8,18,1,13,25,34,0,32,27,0,2,2,4,32,6,5,0,0,7,8,32,31,2,27,0,0,32,6,4,14,32,29,11,29,29,0,0,0,31,0,32,26,4,6,0,4,29,0,29,0,6,4,34,11,0,29,2,0,14,29,12,18,2,4,24,8,11,2,4,6,0,13,32,32,3,2,14,13,13,17,13,13,32,0,7,2,0,0,25,0,0,0,6,6,0,4,19,24,32,15,6,6,6,35,8,4,6,2,26,22,31,0,32,2,30,0,21,6,0,33,32,34,31,6,32,32,32,6,32,32,2,32,0,0,0,0,0,0,0,0,0,0,0,0,0,0,0,0,0,0,0,0,0,0,0,0,0,0,0,0,0,0,0,0,0,0,0,0,0,0,0,0,0,0,0,0,0,0,0,0,0,0,0,0,0,0,0,0,0,0,0,0,0,0,0,0,0,0,0,0,0,0,0,0,0,0,0,0,0,0,0,0,0,0,0,0,0,0,0,0,0,0,0,0,0,0,0,0,0,0,0,0,0,0,0,0,0,0,0,0,0,0,0,0,0,0,0,0,0,0,0,0,0,0,0,0,0,0,0,0,0,0,0,0,0,0,0,0,0,0,0,0,0,0,0,0,0,0,0,0,0,0,0,0,0,0,0,0],"split_type":[0,0,0,0,0,0,0,0,0,0,0,0,0,0,0,0,0,0,0,0,0,0,0,0,0,0,0,0,0,0,0,0,0,0,0,0,0,0,0,0,0,0,0,0,0,0,0,0,0,0,0,0,0,0,0,0,0,0,0,0,0,0,0,0,0,0,0,0,0,0,0,0,0,0,0,0,0,0,0,0,0,0,0,0,0,0,0,0,0,0,0,0,0,0,0,0,0,0,0,0,0,0,0,0,0,0,0,0,0,0,0,0,0,0,0,0,0,0,0,0,0,0,0,0,0,0,0,0,0,0,0,0,0,0,0,0,0,0,0,0,0,0,0,0,0,0,0,0,0,0,0,0,0,0,0,0,0,0,0,0,0,0,0,0,0,0,0,0,0,0,0,0,0,0,0,0,0,0,0,0,0,0,0,0,0,0,0,0,0,0,0,0,0,0,0,0,0,0,0,0,0,0,0,0,0,0,0,0,0,0,0,0,0,0,0,0,0,0,0,0,0,0,0,0,0,0,0,0,0,0,0,0,0,0,0,0,0,0,0,0,0,0,0,0,0,0,0,0,0,0,0,0,0,0,0,0,0,0,0,0,0,0,0,0,0,0,0,0,0,0,0,0,0,0,0,0,0,0,0,0,0,0,0,0,0,0,0,0,0,0,0,0,0,0,0,0,0,0,0,0,0,0,0,0,0,0,0,0,0,0,0,0,0,0,0,0,0,0,0,0,0,0,0,0,0,0,0,0,0,0,0,0,0,0,0,0,0,0,0,0,0,0,0,0,0,0,0,0,0,0,0,0,0,0,0,0,0,0,0,0,0,0,0,0,0,0,0,0,0,0,0,0,0],"sum_hessian":[3.8746522E6,2.1621695E6,1.7124825E6,7.1711794E5,1.4450516E6,1.5862145E6,1.26268016E5,2.7907016E5,4.3804778E5,1.4269191E6,1.813253E4,3.5246075E5,1.2337538E6,3.4972434E4,9.129558E4,2.7181372E5,7.256431E3,4.2205625E5,1.5991537E4,1.3423536E6,8.456554E4,1.0525566E4,7.606962E3,1.711859E5,1.8127483E5,1.0880716E6,1.4568211E5,3.4540105E4,4.3233093E2,5.052695E4,4.0768633E4,5.0821227E4,2.2099248E5,6.5299526E3,7.2647845E2,2.990071E5,1.23049164E5,1.5191778E4,7.997584E2,8.0757086E4,1.2615965E6,2.6121357E3,8.195341E4,1.1784352E3,9.347131E3,4.5109824E3,3.0959797E3,1.5240612E5,1.877978E4,1.0329255E3,1.802419E5,1.0708508E6,1.7220922E4,4.480302E2,1.4523408E5,1.8193852E4,1.6346253E4,3.6647064E1,3.956839E2,4.237839E4,8.1485576E3,1.5591218E4,2.5177414E4,5.0743383E4,7.784535E1,6.718823E1,6.4627646E3,1.7836398E5,1.2064311E5,1.2282227E5,2.2688434E2,1.0061691E4,5.130087E3,4.2667538E1,7.570909E2,5.8329305E4,2.2427777E4,1.1910089E6,7.058771E4,6.1170806E3,7.583633E4,9.4621185E2,2.3222331E2,2.2559831E2,9.121533E3,1.712632E3,2.7983503E3,2.7363801E3,3.5959958E2,1.5202486E5,3.812691E2,4.4636905E2,1.833341E4,3.2464636E2,7.082791E2,1.7994981E5,2.9209097E2,8.922239E5,1.7862686E5,1.808257E3,1.5412665E4,3.141629E2,1.3386732E2,1.4290795E5,2.3261194E3,1.6121623E4,2.0722283E3,1.5737176E4,6.090775E2,3.9291248E2,2.7714083E0,4.2186695E4,1.9169429E2,4.9127188E3,3.2358384E3,1.0182042E4,5.409176E3,2.2766E4,2.4114128E3,5.061367E4,1.2971106E2,4.3926903E1,3.391845E1,1.939615E1,4.779208E1,2.1274155E1,6.44149E3,8.404408E4,9.43199E4,7.855468E4,4.2088434E4,1.7923239E2,1.2264305E5,1.81917E2,4.4967335E1,1.3119742E3,8.749717E3,4.0589717E3,1.0711152E3,9.292211E0,3.3375328E1,4.503174E2,3.0677344E2,5.8272965E4,5.63426E1,3.6254333E3,1.8802344E4,1.0642281E6,1.2678067E5,6.678401E4,3.8037056E3,2.0116936E3,4.1053867E3,1.4415965E4,6.142036E4,2.1724242E2,7.289695E2,9.787263E1,1.27725685E2,6.833793E3,2.2877397E3,1.3955862E3,3.1704572E2,2.393873E3,4.044774E2,1.8461617E2,2.551764E3,2.689893E2,9.061028E1,1.5065844E5,1.3664156E3,6.238999E1,3.1887912E2,1.8091361E4,2.4204764E2,3.0294574E2,2.170064E1,1.711261E5,8.823725E3,4.926546E1,2.428255E2,4.773826E4,8.444856E5,1.4585383E5,3.277302E4,3.5632504E2,1.4519319E3,3.344346E3,1.2068319E4,1.4008683E5,2.8211274E3,8.0536786E2,1.5207516E3,1.0380088E3,1.5083614E4,1.2107529E3,8.614753E2,8.351333E3,7.385843E3,3.6049747E2,2.4858005E2,4.1954215E4,2.3248236E2,5.345007E1,1.3824422E2,2.107395E3,2.805324E3,2.8268496E3,4.08989E2,8.0883794E3,2.0936626E3,2.385152E3,3.0240234E3,2.1374459E4,1.391542E3,9.268452E2,1.4845676E3,1.998282E1,5.0593688E4,1.262452E1,6.7716303E0,1.2326778E1,8.947375E0,6.42482E3,1.6670427E1,6.647617E4,1.75679E4,6.5209156E4,2.9110744E4,1.1990205E4,3.009823E4,1.0871518E0,1.7814525E2,1.3345749E0,1.8058243E2,9.305528E2,3.814215E2,5.209904E3,3.5398135E3,3.817006E3,2.4196548E2,7.9533966E2,2.7577563E2,3.1418331E1,1.9569952E0,2.2729797E1,4.2758762E2,5.7678023E4,5.949388E2,1.1176243E0,5.5224976E1,2.6905654E3,9.3486804E2,2.3023828E2,1.8572105E4,2.9958116E5,7.64647E5,1.8782379E4,1.0799829E5,3.9692527E4,2.709148E4,5.4437177E2,3.2593337E3,6.5130505E2,1.3603885E3,4.01259E3,9.279682E1,1.4378593E4,3.7371845E1,2.2600286E3,5.9160332E4,6.3935956E2,8.96099E1,4.5272552E1,5.2600075E1,4.907712E1,7.864857E1,6.6232124E3,2.1058081E2,3.5862283E2,1.9291171E3,1.4184862E2,1.2537375E3,1.6848483E2,1.4856087E2,1.6451007E3,7.487723E2,2.9528265E2,1.0919474E2,1.4111697E2,4.34992E1,1.0812228E2,2.4436416E3,6.765509E1,2.013342E2,1.4835916E5,2.29928E3,1.0398534E3,3.265622E2,1.7958133E4,1.3322932E2,3.0888152E4,1.4023794E5,4.1723276E3,4.6513965E3,1.7513921E0,2.4107411E2,6.567848E3,4.1170414E4,9.946365E4,7.45022E5,3.1812443E4,1.1404139E5,2.5833824E4,6.9391963E3,9.6244095E1,2.6008096E2,8.9033545E2,5.6159644E2,1.5874922E3,1.7568538E3,2.217041E3,9.851278E3,1.6229137E3,1.384639E5,2.0055857E3,8.155419E2,1.17884186E2,6.874837E2,1.0264886E2,1.4181028E3,2.9796286E2,7.400459E2,7.3512188E3,7.732395E3,2.1181665E2,9.989362E2,2.0794502E2,8.1433877E3,1.3704657E3,6.0153774E3,2.3590872E1,3.3690662E2,1.3506098E4,2.8448117E4,4.5578594E1,1.8690376E2,1.1846067E2,1.978354E1,5.881328E2,1.5192621E3,2.149206E3,6.5611786E2,1.8104247E2,2.6458071E3,1.551916E2,2.5379741E2,4.1037456E3,3.9846338E3,1.00213104E3,1.0915316E3,1.9436892E3,4.4146286E2,5.716705E2,2.452353E3,2.0252877E4,1.1215824E3,1.1543269E3,2.3721518E2,1.7154922E2,7.5529596E2,1.2049437E3,2.7962396E2],"tree_param":{"num_deleted":"0","num_feature":"36","num_nodes":"373","size_leaf_vector":"1"}},{"base_weights":[6.9331825E-2,8.48494E-1,-8.1677574E-1,5.1003385E-1,9.759063E-1,-9.512897E-1,-5.0936E-1,8.5222757E-1,-7.2247356E-1,9.891647E-1,2.5810702E-2,-1.22277E0,-8.765593E-1,-1.0560333E0,-3.7294877E-1,1.1339953E0,4.6275148E-1,-3.904064E-1,2.1860254E-1,-3.6108223E-1,9.950541E-1,-1.0668087E0,1.7248057E-1,-8.522707E-1,-1.269438E0,-8.2167125E-1,-1.3170608E0,-7.330512E-1,-1.2015916E0,1.7204487E-1,-5.553783E-1,1.142905E0,8.059791E-1,-6.536373E-3,9.577317E-1,-3.5492817E-1,6.964772E-1,6.438415E-1,-9.080088E-1,6.4432317E-1,1.0162495E0,-1.6479555E0,6.496518E-1,-8.800761E-1,3.1086138E-1,-1.0062606E0,9.816563E-1,-1.5466565E-1,-1.2746298E0,-8.553031E-1,-2.531721E-1,1.0744586E0,-1.3277707E0,-1.0078984E0,1.8069153E0,-1.3283316E0,-1.0224742E0,2.737437E-1,-1.1475453E0,-1.0505117E0,-2.1285209E-1,1.1030833E0,3.4563953E-1,1.0495915E0,-3.8993135E-1,5.089056E-1,-5.709239E-1,1.1497529E0,6.677343E-1,3.9142868E-1,-8.477024E-1,-1.9651855E0,7.7000785E-1,8.532423E-1,-1.5142795E0,-1.5576402E0,4.6907005E-1,1.0162848E0,-1.4184913E-1,1.0390393E0,6.6013455E-1,-1.5702907E0,-2.3254704E0,1.2352697E0,-1.634506E0,-1.4224102E0,3.607485E-1,6.799781E-1,-7.514542E-2,-6.452018E-1,-1.3487107E0,1.4709117E0,-4.0552863E-1,-4.040437E-1,1.8972877E0,-2.1932727E-1,-1.2794431E0,-5.7551354E-1,-9.284341E-1,9.766337E-2,-1.0961572E0,5.20544E-1,-4.0460652E-1,-1.3613181E0,-6.936497E-1,6.1977667E-1,-1.0768921E0,-4.465076E-1,1.8278618E0,-1.349609E0,-6.922584E-1,-3.621102E-1,-1.1667614E0,6.052549E-1,-9.5468625E-2,-3.9672545E-1,-1.6212016E0,-6.146219E-1,-1.3440888E0,4.3302885E-1,-4.839107E-1,1.1128279E0,-4.5263508E-1,1.0861782E0,-4.221812E-1,7.527875E-2,1.4586296E0,-7.626769E-1,1.135917E0,3.4509254E-1,9.8048866E-1,8.020862E-1,-1.3288223E0,-2.3268044E0,5.347498E-1,4.0785164E-2,-1.1444371E0,-1.7924508E0,-2.1749225E0,8.377219E-1,-2.0005827E0,1.0038224E0,-1.511922E0,-6.5890783E-1,-1.4657086E0,-1.3168505E0,-1.6489873E0,8.420601E-1,-1.7186124E0,-7.850737E-1,1.0896575E0,-1.8637415E-2,-2.4783616E0,8.3511794E-1,1.061426E0,-3.9027688E-1,7.2117907E-1,-1.3882072E0,-1.7616603E0,-1.7961432E0,-2.7022696E0,-5.363749E-1,1.2709287E0,-3.6330214E-1,-1.725962E0,-1.376496E0,-1.6625168E0,-4.1990727E-1,9.547173E-1,-5.010892E-1,8.6974794E-1,-4.853742E-1,4.8713958E-1,1.1969632E0,-1.1399051E0,-1.4274702E0,-1.3335842E0,-4.1892534E-1,1.7081593E0,6.172102E-1,-3.7128344E-1,1.6222101E0,-3.964435E-1,-1.2099787E0,-1.3407971E0,1.655628E-1,-8.0890495E-1,-1.0893034E0,-7.5958425E-1,-4.016719E-1,7.437512E-1,9.4482446E-1,-1.2242029E0,-1.3954157E0,-1.3471591E0,-1.1576364E0,9.2651635E-1,1.9578221E0,-4.0928468E-1,-8.037611E-1,-1.363478E0,2.0487528E0,1.5261934E0,-1.3143445E0,-1.3605483E0,1.2479637E0,-4.038752E-1,-4.0143454E-1,6.6808957E-1,1.0334575E0,-1.2020411E0,6.9944465E-1,-1.1365863E0,-1.3327957E0,5.2845055E-1,5.7236814E-1,-1.5635589E0,-1.7719191E0,-1.5337459E0,5.5691916E-1,-7.484892E-1,-1.3631052E0,-1.609368E-1,1.0093151E0,-1.1579399E0,-1.1102579E0,-2.0539457E-1,-1.4663322E0,3.348241E-1,3.308536E-1,-8.380727E-1,-1.3835193E-1,3.4370553E-1,6.079147E-1,3.8250792E-1,-2.995576E-1,3.2848993E-1,3.5493493E-1,-1.1965113E0,3.4368673E-1,-1.6937845E0,-4.760636E-1,2.5273585E-1,-7.112352E-1,-4.075491E-2,-8.16908E-1,-5.594998E-1,2.0742124E-1,-3.9827555E-1,-5.716291E-1,2.705596E-1,-3.9997345E-1,3.613168E-1,-4.8103592E-1,-5.7508093E-1,-5.50231E-1,-8.381157E-1,2.700413E-1,-3.8104317E-1,-5.3342575E-1,-6.8955576E-1,-4.7344446E-1,3.2481578E-1,-3.6006704E-1,-4.9742252E-1,-3.6619374E-1,-4.6134797E-1,-4.33231E-1,-3.6949044E-1,-5.099973E-1,-4.3295905E-1,-4.9849668E-1,3.13741E-1,-6.7022324E-1,-4.7692066E-1,-3.9648095E-1,5.108532E-1,3.3191383E-1,-5.923925E-1,6.812255E-2,-2.826453E-1,8.758738E-2,-9.9454606E-1,3.4602836E-1,-4.4207126E-1,2.9059973E-1,3.3132806E-1,1.4286743E-1,2.6650178E-1,-3.7917757E-1,-4.4130287E-1,-9.224455E-1,-5.124992E-1,-5.951757E-1,-3.8119152E-1,-9.8865634E-1,-5.147111E-1,4.029034E-1,3.4392855E-1,-5.441709E-1,-3.8263834E-1,-3.8752845E-1,-4.2541757E-1,-3.3954817E-1,-5.118248E-1,3.5891488E-1,-4.9582818E-1,3.4049147E-1,-3.779681E-1,3.422259E-1,9.059976E-2,-2.7671106E-2,-5.193798E-1,2.3885319E-1,-5.042859E-1,4.635765E-1,-4.0361106E-1,2.9511407E-1,-4.0540513E-1,-4.2060125E-1,-4.901347E-1,-3.9605495E-1,-4.0436652E-1,4.1855386E-1,5.6326777E-1,5.350466E-1,-3.779892E-1,-4.022612E-1,3.6650318E-1,-4.2299175E-1,-3.984362E-1,-4.145783E-1,1.0388529E-1,-3.3814365E-1,-1.3812049E-1,-2.3962699E-1,-3.9887336E-1,2.058442E-1,-2.512687E-1,2.6624927E-1,-3.1490666E-1,2.5687793E-1,-6.11048E-1,4.670938E-1,-4.132502E-1,-4.086291E-1,1.9609444E-1,-4.1038805E-1,-4.3319115E-1,-3.9235187E-1,-4.078379E-1,1.0142937E-1,-4.07706E-1,-4.2571256E-1,6.156202E-1,8.5543054E-1,3.420143E-1,1.2410117E-1,-2.920959E-1,-4.232904E-1,-4.0356147E-1,6.52609E-1,4.4567305E-1,-3.970271E-1,4.6170127E-1,-3.936025E-1,-4.3151864E-1,-4.0599838E-1,-4.2044008E-1,-3.9842546E-1,4.303138E-1,5.094774E-1,-4.03704E-1,4.3854812E-1,-4.5405027E-1,-3.723007E-1,2.5582126E-1,-4.9451092E-1,2.2482727E-1,1.5928896E-1,-5.2277017E-1,5.529129E-1,-4.2564878E-1,2.7589756E-1,-4.5545146E-2,-5.467677E-1,3.0884117E-1,-5.059024E-1,-4.5623598E-1,-5.0157684E-1,-9.990758E-1,-4.3145663E-1,-4.6808273E-1,2.1327138E-2,6.6746974E-1,-2.9336226E-1,-2.994448E-2,-4.144018E-1,-1.9544047E-1,8.279546E-1,-4.16673E-1,1.6321425E-1,5.4301023E-1,-2.159847E-2,-4.332922E-1,1.09315686E-1,-3.671709E-1,3.9794445E-1,-1.18671335E-1],"categories":[],"categories_nodes":[],"categories_segments":[],"categories_sizes":[],"default_left":[0,0,0,0,0,0,0,0,0,0,0,0,0,0,0,0,0,0,0,0,0,0,0,0,0,0,0,0,0,0,0,0,0,0,0,0,0,0,0,0,0,0,0,0,0,0,0,0,0,0,0,0,0,0,0,0,0,0,0,0,0,0,0,0,0,0,0,0,0,0,0,0,0,0,0,0,0,0,0,0,0,0,0,0,0,0,0,0,0,0,0,0,0,0,0,0,0,0,0,0,0,0,0,0,0,0,0,0,0,0,0,0,0,0,0,0,0,0,0,0,0,0,0,0,0,0,0,0,0,0,0,0,0,0,0,0,0,0,0,0,0,0,0,0,0,0,0,0,0,0,0,0,0,0,0,0,0,0,0,0,0,0,0,0,0,0,0,0,0,0,0,0,0,0,0,0,0,0,0,0,0,0,0,0,0,0,0,0,0,0,0,0,0,0,0,0,0,0,0,0,0,0,0,0,0,0,0,0,0,0,0,0,0,0,0,0,0,0,0,0,0,0,0,0,0,0,0,0,0,0,0,0,0,0,0,0,0,0,0,0,0,0,0,0,0,0,0,0,0,0,0,0,0,0,0,0,0,0,0,0,0,0,0,0,0,0,0,0,0,0,0,0,0,0,0,0,0,0,0,0,0,0,0,0,0,0,0,0,0,0,0,0,0,0,0,0,0,0,0,0,0,0,0,0,0,0,0,0,0,0,0,0,0,0,0,0,0,0,0,0,0,0,0,0,0,0,0,0,0,0,0,0,0,0,0,0,0,0,0,0,0,0,0,0,0,0,0,0,0,0,0,0,0,0,0,0,0,0,0,0,0,0,0,0,0,0,0,0,0,0,0,0,0,0,0,0,0,0,0,0,0,0,0,0,0,0,0,0,0,0,0,0,0,0,0,0,0,0,0,0,0,0,0,0,0,0,0,0,0],"id":3,"left_children":[1,3,5,7,9,11,13,15,17,19,21,23,25,27,29,31,33,-1,35,37,39,41,43,45,47,49,51,53,55,57,59,61,63,65,67,69,71,73,75,77,79,81,83,85,87,89,91,93,95,97,99,101,103,105,107,109,111,113,115,117,119,121,-1,123,-1,125,127,129,131,133,135,137,139,141,143,145,147,149,151,153,155,157,159,161,163,165,167,169,171,173,175,177,-1,-1,179,181,183,185,187,189,191,-1,-1,193,195,197,199,-1,201,203,205,207,209,211,213,215,217,219,221,223,225,227,-1,229,-1,231,233,235,237,-1,239,241,243,245,247,249,251,253,255,257,259,261,263,-1,265,267,269,271,273,275,277,279,281,283,285,-1,287,289,291,293,295,-1,297,-1,299,301,303,-1,305,307,309,311,313,315,317,319,321,-1,323,-1,-1,325,-1,327,329,331,333,335,337,339,341,343,345,347,349,351,353,355,-1,357,359,361,363,365,367,369,-1,-1,371,373,375,377,379,381,383,385,387,389,391,393,395,397,399,401,403,405,407,-1,-1,-1,-1,-1,-1,-1,-1,-1,-1,-1,-1,-1,-1,-1,-1,-1,-1,-1,-1,-1,-1,-1,-1,-1,-1,-1,-1,-1,-1,-1,-1,-1,-1,-1,-1,-1,-1,-1,-1,-1,-1,-1,-1,-1,-1,-1,-1,-1,-1,-1,-1,-1,-1,-1,-1,-1,-1,-1,-1,-1,-1,-1,-1,-1,-1,-1,-1,-1,-1,-1,-1,-1,-1,-1,-1,-1,-1,-1,-1,-1,-1,-1,-1,-1,-1,-1,-1,-1,-1,-1,-1,-1,-1,-1,-1,-1,-1,-1,-1,-1,-1,-1,-1,-1,-1,-1,-1,-1,-1,-1,-1,-1,-1,-1,-1,-1,-1,-1,-1,-1,-1,-1,-1,-1,-1,-1,-1,-1,-1,-1,-1,-1,-1,-1,-1,-1,-1,-1,-1,-1,-1,-1,-1,-1,-1,-1,-1,-1,-1,-1,-1,-1,-1,-1,-1,-1,-1,-1,-1,-1,-1,-1,-1,-1,-1,-1,-1,-1,-1,-1,-1,-1,-1,-1,-1,-1,-1,-1,-1,-1,-1],"loss_changes":[2.269506E6,7.542825E4,6.3599062E4,2.0175681E5,1.600725E4,2.1704375E4,3.4909992E4,4.1088844E4,5.6631445E4,9.9665E3,2.803035E3,3.991875E3,2.0283188E4,4.3941875E3,3.7249414E4,6.34E2,3.650901E4,0E0,1.0851488E4,2.992358E3,9.2755E3,2.0660098E3,2.2463887E3,7.297586E3,1.1868438E3,1.42629375E4,2.3821562E3,2.0278547E4,1.4615547E3,1.2609826E4,4.7604773E4,7.64375E1,2.9501675E3,2.3470953E4,4.2587188E3,6.6188857E3,4.2284316E3,8.6851794E2,3.1544763E3,2.0795633E4,9.549125E3,7.773779E1,7.0336554E2,1.2064878E3,1.942052E3,2.9463594E3,2.287472E3,2.331099E3,1.0366875E3,1.4410875E4,1.2323575E4,6.666627E2,1.967625E3,2.9440352E3,1.9850586E2,5.0977344E2,2.5443398E3,1.0677778E4,2.3904062E3,1.4687102E4,2.9047797E4,1.01489844E3,0E0,4.6470508E2,0E0,1.7366277E4,1.260559E4,3.203125E0,8.1755264E3,2.7895332E3,2.857834E3,1.7146484E1,3.9447334E3,6.247468E2,2.415802E0,5.052002E1,9.241313E2,6.3812656E3,6.575463E3,5.047875E3,8.473775E3,4.60166E1,2.6458923E1,4.7322754E1,2.0705566E0,1.1461426E1,5.721015E2,1.5620576E3,1.5372504E3,1.0577121E4,1.2669922E1,1.128511E3,0E0,0E0,1.78297E2,1.8858816E3,8.6446875E2,2.5243848E4,1.51661875E4,9.492954E3,3.2013838E3,0E0,0E0,4.05625E1,3.4978806E3,2.8338235E3,1.9671094E3,0E0,1.8471777E2,1.2296875E1,1.5541548E3,4.817722E3,1.7025918E3,7.5421074E3,3.186304E4,2.9432688E3,5.161914E1,7.24524E3,1.5428828E3,4.4971027E4,2.0387713E4,7.795039E2,0E0,3.3143018E2,0E0,1.662532E4,1.3753164E3,1.5170264E4,9.455752E2,0E0,1.7860724E2,2.754879E3,2.3884795E3,6.0546997E1,1.984625E3,4.5512637E3,3.6051895E3,4.5545654E0,4.921582E1,2.700417E3,2.9171753E1,3.3696985E2,2.7996826E0,0E0,9.8223877E-1,5.419922E0,1.5733887E1,4.9487897E2,7.412079E0,2.5249897E3,2.3789805E3,4.923803E3,2.653248E3,8.040088E4,3.973875E3,0E0,2.8101953E3,5.5233154E0,4.197412E1,4.215454E0,4.6862305E1,0E0,2.1721802E0,0E0,1.0932922E0,1.8760986E0,2.586792E0,0E0,2.5953806E2,1.1996322E3,9.233384E2,1.8871221E3,1.8849521E3,2.1778374E3,4.10934E3,7.989502E0,1.8945312E-1,0E0,7.846533E1,0E0,0E0,1.6398236E2,0E0,3.034039E4,9.275E1,9.776696E3,1.2309641E4,1.9960875E4,3.0713484E4,1.3866666E4,4.0146816E3,1.0306338E3,2.9847207E3,3.2367188E1,2.8265625E1,1.089812E3,2.73835E3,4.6248755E2,0E0,2.6637637E3,8.75E0,1.12598145E2,4.5680664E1,6.279297E-1,6.3320312E0,1.5027063E2,0E0,0E0,4.838512E3,3.8019193E2,1.7280977E3,5.1183613E3,2.3841558E3,3.7828965E3,7.30218E3,1.5588279E3,3.6367188E0,2.2930273E2,4.3876953E0,3.8391294E3,6.1687363E3,8.7497656E2,3.8990493E3,1.3413148E4,4.0558867E3,6.028965E3,2.3568768E4,0E0,0E0,0E0,0E0,0E0,0E0,0E0,0E0,0E0,0E0,0E0,0E0,0E0,0E0,0E0,0E0,0E0,0E0,0E0,0E0,0E0,0E0,0E0,0E0,0E0,0E0,0E0,0E0,0E0,0E0,0E0,0E0,0E0,0E0,0E0,0E0,0E0,0E0,0E0,0E0,0E0,0E0,0E0,0E0,0E0,0E0,0E0,0E0,0E0,0E0,0E0,0E0,0E0,0E0,0E0,0E0,0E0,0E0,0E0,0E0,0E0,0E0,0E0,0E0,0E0,0E0,0E0,0E0,0E0,0E0,0E0,0E0,0E0,0E0,0E0,0E0,0E0,0E0,0E0,0E0,0E0,0E0,0E0,0E0,0E0,0E0,0E0,0E0,0E0,0E0,0E0,0E0,0E0,0E0,0E0,0E0,0E0,0E0,0E0,0E0,0E0,0E0,0E0,0E0,0E0,0E0,0E0,0E0,0E0,0E0,0E0,0E0,0E0,0E0,0E0,0E0,0E0,0E0,0E0,0E0,0E0,0E0,0E0,0E0,0E0,0E0,0E0,0E0,0E0,0E0,0E0,0E0,0E0,0E0,0E0,0E0,0E0,0E0,0E0,0E0,0E0,0E0,0E0,0E0,0E0,0E0,0E0,0E0,0E0,0E0,0E0,0E0,0E0,0E0,0E0,0E0,0E0,0E0,0E0,0E0,0E0,0E0,0E0,0E0,0E0,0E0,0E0,0E0,0E0,0E0,0E0,0E0,0E0,0E0,0E0,0E0,0E0,0E0,0E0,0E0,0E0,0E0],"parents":[2147483647,0,0,1,1,2,2,3,3,4,4,5,5,6,6,7,7,8,8,9,9,10,10,11,11,12,12,13,13,14,14,15,15,16,16,18,18,19,19,20,20,21,21,22,22,23,23,24,24,25,25,26,26,27,27,28,28,29,29,30,30,31,31,32,32,33,33,34,34,35,35,36,36,37,37,38,38,39,39,40,40,41,41,42,42,43,43,44,44,45,45,46,46,47,47,48,48,49,49,50,50,51,51,52,52,53,53,54,54,55,55,56,56,57,57,58,58,59,59,60,60,61,61,63,63,65,65,66,66,67,67,68,68,69,69,70,70,71,71,72,72,73,73,74,74,75,75,76,76,77,77,78,78,79,79,80,80,81,81,82,82,83,83,84,84,85,85,86,86,87,87,88,88,89,89,90,90,91,91,94,94,95,95,96,96,97,97,98,98,99,99,100,100,103,103,104,104,105,105,106,106,108,108,109,109,110,110,111,111,112,112,113,113,114,114,115,115,116,116,117,117,118,118,119,119,120,120,121,121,123,123,125,125,126,126,127,127,128,128,130,130,131,131,132,132,133,133,134,134,135,135,136,136,137,137,138,138,139,139,140,140,141,141,142,142,144,144,145,145,146,146,147,147,148,148,149,149,150,150,151,151,152,152,153,153,154,154,156,156,157,157,158,158,159,159,160,160,162,162,164,164,165,165,166,166,168,168,169,169,170,170,171,171,172,172,173,173,174,174,175,175,176,176,178,178,181,181,183,183,184,184,185,185,186,186,187,187,188,188,189,189,190,190,191,191,192,192,193,193,194,194,195,195,196,196,197,197,199,199,200,200,201,201,202,202,203,203,204,204,205,205,208,208,209,209,210,210,211,211,212,212,213,213,214,214,215,215,216,216,217,217,218,218,219,219,220,220,221,221,222,222,223,223,224,224,225,225,226,226],"right_children":[2,4,6,8,10,12,14,16,18,20,22,24,26,28,30,32,34,-1,36,38,40,42,44,46,48,50,52,54,56,58,60,62,64,66,68,70,72,74,76,78,80,82,84,86,88,90,92,94,96,98,100,102,104,106,108,110,112,114,116,118,120,122,-1,124,-1,126,128,130,132,134,136,138,140,142,144,146,148,150,152,154,156,158,160,162,164,166,168,170,172,174,176,178,-1,-1,180,182,184,186,188,190,192,-1,-1,194,196,198,200,-1,202,204,206,208,210,212,214,216,218,220,222,224,226,228,-1,230,-1,232,234,236,238,-1,240,242,244,246,248,250,252,254,256,258,260,262,264,-1,266,268,270,272,274,276,278,280,282,284,286,-1,288,290,292,294,296,-1,298,-1,300,302,304,-1,306,308,310,312,314,316,318,320,322,-1,324,-1,-1,326,-1,328,330,332,334,336,338,340,342,344,346,348,350,352,354,356,-1,358,360,362,364,366,368,370,-1,-1,372,374,376,378,380,382,384,386,388,390,392,394,396,398,400,402,404,406,408,-1,-1,-1,-1,-1,-1,-1,-1,-1,-1,-1,-1,-1,-1,-1,-1,-1,-1,-1,-1,-1,-1,-1,-1,-1,-1,-1,-1,-1,-1,-1,-1,-1,-1,-1,-1,-1,-1,-1,-1,-1,-1,-1,-1,-1,-1,-1,-1,-1,-1,-1,-1,-1,-1,-1,-1,-1,-1,-1,-1,-1,-1,-1,-1,-1,-1,-1,-1,-1,-1,-1,-1,-1,-1,-1,-1,-1,-1,-1,-1,-1,-1,-1,-1,-1,-1,-1,-1,-1,-1,-1,-1,-1,-1,-1,-1,-1,-1,-1,-1,-1,-1,-1,-1,-1,-1,-1,-1,-1,-1,-1,-1,-1,-1,-1,-1,-1,-1,-1,-1,-1,-1,-1,-1,-1,-1,-1,-1,-1,-1,-1,-1,-1,-1,-1,-1,-1,-1,-1,-1,-1,-1,-1,-1,-1,-1,-1,-1,-1,-1,-1,-1,-1,-1,-1,-1,-1,-1,-1,-1,-1,-1,-1,-1,-1,-1,-1,-1,-1,-1,-1,-1,-1,-1,-1,-1,-1,-1,-1,-1,-1,-1],"split_conditions":[2.026E3,4.829E3,6.365E1,4.784E3,2E1,9E0,5.094E3,4.121E3,4.814E3,3E0,3E0,1E0,2E1,4.131E3,5.311E3,2E0,4.131E3,-3.904064E-1,1.3856E2,3.107E1,1.0792E4,4.5886207E-2,2.7092E4,8E0,5E2,7.542E3,5.4E1,4.121E3,2.876E3,3.904E3,5.621E3,1E0,1E0,2.368E4,4.511E3,4.176E1,5E0,4.17E3,4.078E3,9.932E3,6.3E3,8.8459E4,2.49E2,8.83E2,5.411E3,4.487E4,4.487E4,5.947E3,3.64E3,5.311E3,7.9689E4,2.105E3,7E0,-1.2258E2,6.8E1,1.931E3,4.4444446E-3,5.8215E4,2E0,5.499E3,5.814E3,2E1,3.4563953E-1,2.465E3,-3.8993135E-1,3.262E1,5.8E1,5.2517E4,1.8E1,6E0,1.952E3,1.4420474E-2,2E1,-8.796E1,2.141E1,5.045E3,1.24E4,5.193E3,8E0,5.045E3,7.011E3,5.621E3,4.333E1,5E0,5.045E3,2.0561E4,5.719E3,5.045E3,7.57E2,-8.683E1,5.311E3,4.1102E4,-4.0552863E-1,-4.040437E-1,5.97E3,3.3E2,4.487E4,1.027E1,5.651E3,4.5389E4,1.05256484E-4,5.20544E-1,-4.0460652E-1,5.499E3,7.2E1,-2E0,2.298E3,-4.465076E-1,2.594E3,9E0,-3E0,-8.134E1,9.766E3,1.8E1,6.06E4,1.912E4,2.1842E4,1.5316E4,8.5E2,1.7E1,5.921E3,4.439E3,-4.5263508E-1,7.68E2,-4.221812E-1,8.0107E4,4.333E1,8.0107E4,7.3E1,3.4509254E-1,1.005E1,1E0,6.9E1,2.987E1,-8.068E1,3.27E3,7.3706E4,2.158E3,2.0228E2,3.884E3,1.4420474E-2,1E0,5.045E3,-6.5890783E-1,5.045E3,6.6E1,7.21E3,6.23E2,6.3E1,3.58E2,5.815E3,2.013E3,2.896E3,4.899E3,2.858E1,-3.9027688E-1,7.802E3,5.045E3,5.733E3,6.73E2,8.8646E4,-5.363749E-1,2E1,-3.6330214E-1,4.57E2,5.311E3,5.045E3,-4.1990727E-1,5.812E3,2.7601E4,8.2981E4,2.2E1,3.864E1,7.26E2,2.613E1,9.4683E4,5.651E3,-4.1892534E-1,2.8395E4,6.172102E-1,-3.7128344E-1,2.007E3,-3.964435E-1,4.4666E4,5.311E3,4.112E3,5.3E3,5.499E3,5.719E3,1.0792E4,4.794E1,3.2337087E-1,9.5829E4,6.06E4,5.651E3,4.439E3,2.014E3,4.314175E-3,-4.0928468E-1,2.009E3,1.1567E2,3.881E1,5.1980345E-3,6.890959E15,6E0,2.2084E2,-4.038752E-1,-4.0143454E-1,2.4412E4,1.0854721E-2,9.8531E4,5E0,6.789E3,2.6E1,2.368E4,1.03E4,2.4206E4,1.4473E2,9E0,-7.954E1,7.702E4,7.0462E4,6.2E1,5.733E3,5.733E3,1.4383E4,5.941E3,-1.4663322E0,3.348241E-1,3.308536E-1,-8.380727E-1,-1.3835193E-1,3.4370553E-1,6.079147E-1,3.8250792E-1,-2.995576E-1,3.2848993E-1,3.5493493E-1,-1.1965113E0,3.4368673E-1,-1.6937845E0,-4.760636E-1,2.5273585E-1,-7.112352E-1,-4.075491E-2,-8.16908E-1,-5.594998E-1,2.0742124E-1,-3.9827555E-1,-5.716291E-1,2.705596E-1,-3.9997345E-1,3.613168E-1,-4.8103592E-1,-5.7508093E-1,-5.50231E-1,-8.381157E-1,2.700413E-1,-3.8104317E-1,-5.3342575E-1,-6.8955576E-1,-4.7344446E-1,3.2481578E-1,-3.6006704E-1,-4.9742252E-1,-3.6619374E-1,-4.6134797E-1,-4.33231E-1,-3.6949044E-1,-5.099973E-1,-4.3295905E-1,-4.9849668E-1,3.13741E-1,-6.7022324E-1,-4.7692066E-1,-3.9648095E-1,5.108532E-1,3.3191383E-1,-5.923925E-1,6.812255E-2,-2.826453E-1,8.758738E-2,-9.9454606E-1,3.4602836E-1,-4.4207126E-1,2.9059973E-1,3.3132806E-1,1.4286743E-1,2.6650178E-1,-3.7917757E-1,-4.4130287E-1,-9.224455E-1,-5.124992E-1,-5.951757E-1,-3.8119152E-1,-9.8865634E-1,-5.147111E-1,4.029034E-1,3.4392855E-1,-5.441709E-1,-3.8263834E-1,-3.8752845E-1,-4.2541757E-1,-3.3954817E-1,-5.118248E-1,3.5891488E-1,-4.9582818E-1,3.4049147E-1,-3.779681E-1,3.422259E-1,9.059976E-2,-2.7671106E-2,-5.193798E-1,2.3885319E-1,-5.042859E-1,4.635765E-1,-4.0361106E-1,2.9511407E-1,-4.0540513E-1,-4.2060125E-1,-4.901347E-1,-3.9605495E-1,-4.0436652E-1,4.1855386E-1,5.6326777E-1,5.350466E-1,-3.779892E-1,-4.022612E-1,3.6650318E-1,-4.2299175E-1,-3.984362E-1,-4.145783E-1,1.0388529E-1,-3.3814365E-1,-1.3812049E-1,-2.3962699E-1,-3.9887336E-1,2.058442E-1,-2.512687E-1,2.6624927E-1,-3.1490666E-1,2.5687793E-1,-6.11048E-1,4.670938E-1,-4.132502E-1,-4.086291E-1,1.9609444E-1,-4.1038805E-1,-4.3319115E-1,-3.9235187E-1,-4.078379E-1,1.0142937E-1,-4.07706E-1,-4.2571256E-1,6.156202E-1,8.5543054E-1,3.420143E-1,1.2410117E-1,-2.920959E-1,-4.232904E-1,-4.0356147E-1,6.52609E-1,4.4567305E-1,-3.970271E-1,4.6170127E-1,-3.936025E-1,-4.3151864E-1,-4.0599838E-1,-4.2044008E-1,-3.9842546E-1,4.303138E-1,5.094774E-1,-4.03704E-1,4.3854812E-1,-4.5405027E-1,-3.723007E-1,2.5582126E-1,-4.9451092E-1,2.2482727E-1,1.5928896E-1,-5.2277017E-1,5.529129E-1,-4.2564878E-1,2.7589756E-1,-4.5545146E-2,-5.467677E-1,3.0884117E-1,-5.059024E-1,-4.5623598E-1,-5.0157684E-1,-9.990758E-1,-4.3145663E-1,-4.6808273E-1,2.1327138E-2,6.6746974E-1,-2.9336226E-1,-2.994448E-2,-4.144018E-1,-1.9544047E-1,8.279546E-1,-4.16673E-1,1.6321425E-1,5.4301023E-1,-2.159847E-2,-4.332922E-1,1.09315686E-1,-3.671709E-1,3.9794445E-1,-1.18671335E-1],"split_indices":[5,6,2,6,29,29,6,6,6,29,19,24,29,6,6,3,6,0,2,13,4,34,4,19,18,6,9,6,32,32,6,3,24,15,6,2,29,1,32,4,6,4,0,23,6,5,5,6,6,6,4,4,19,14,2,0,34,4,30,6,6,29,0,32,0,2,2,15,29,29,10,34,29,14,13,6,26,6,33,6,6,6,2,33,6,4,6,6,18,14,6,5,0,0,6,32,5,2,6,4,34,0,0,6,9,33,31,0,32,29,33,14,16,29,4,15,15,15,18,29,6,4,0,18,0,4,2,4,8,0,2,3,9,2,14,31,4,32,2,32,34,29,6,0,6,9,6,23,9,2,6,27,31,6,2,0,6,6,6,23,4,0,0,0,23,6,6,0,6,4,4,29,13,18,13,4,6,0,4,0,0,27,0,5,6,6,6,6,6,4,2,35,5,4,6,4,27,34,0,27,2,13,34,22,30,2,0,0,15,34,5,29,26,31,15,26,15,2,29,14,4,4,9,6,6,15,6,0,0,0,0,0,0,0,0,0,0,0,0,0,0,0,0,0,0,0,0,0,0,0,0,0,0,0,0,0,0,0,0,0,0,0,0,0,0,0,0,0,0,0,0,0,0,0,0,0,0,0,0,0,0,0,0,0,0,0,0,0,0,0,0,0,0,0,0,0,0,0,0,0,0,0,0,0,0,0,0,0,0,0,0,0,0,0,0,0,0,0,0,0,0,0,0,0,0,0,0,0,0,0,0,0,0,0,0,0,0,0,0,0,0,0,0,0,0,0,0,0,0,0,0,0,0,0,0,0,0,0,0,0,0,0,0,0,0,0,0,0,0,0,0,0,0,0,0,0,0,0,0,0,0,0,0,0,0,0,0,0,0,0,0,0,0,0,0,0,0,0,0,0,0,0,0,0,0,0,0,0,0],"split_type":[0,0,0,0,0,0,0,0,0,0,0,0,0,0,0,0,0,0,0,0,0,0,0,0,0,0,0,0,0,0,0,0,0,0,0,0,0,0,0,0,0,0,0,0,0,0,0,0,0,0,0,0,0,0,0,0,0,0,0,0,0,0,0,0,0,0,0,0,0,0,0,0,0,0,0,0,0,0,0,0,0,0,0,0,0,0,0,0,0,0,0,0,0,0,0,0,0,0,0,0,0,0,0,0,0,0,0,0,0,0,0,0,0,0,0,0,0,0,0,0,0,0,0,0,0,0,0,0,0,0,0,0,0,0,0,0,0,0,0,0,0,0,0,0,0,0,0,0,0,0,0,0,0,0,0,0,0,0,0,0,0,0,0,0,0,0,0,0,0,0,0,0,0,0,0,0,0,0,0,0,0,0,0,0,0,0,0,0,0,0,0,0,0,0,0,0,0,0,0,0,0,0,0,0,0,0,0,0,0,0,0,0,0,0,0,0,0,0,0,0,0,0,0,0,0,0,0,0,0,0,0,0,0,0,0,0,0,0,0,0,0,0,0,0,0,0,0,0,0,0,0,0,0,0,0,0,0,0,0,0,0,0,0,0,0,0,0,0,0,0,0,0,0,0,0,0,0,0,0,0,0,0,0,0,0,0,0,0,0,0,0,0,0,0,0,0,0,0,0,0,0,0,0,0,0,0,0,0,0,0,0,0,0,0,0,0,0,0,0,0,0,0,0,0,0,0,0,0,0,0,0,0,0,0,0,0,0,0,0,0,0,0,0,0,0,0,0,0,0,0,0,0,0,0,0,0,0,0,0,0,0,0,0,0,0,0,0,0,0,0,0,0,0,0,0,0,0,0,0,0,0,0,0,0,0,0,0,0,0,0,0,0,0,0,0,0,0,0,0,0,0,0,0,0,0,0,0,0,0],"sum_hessian":[3.2871298E6,1.7491164E6,1.5380134E6,4.783704E5,1.2707459E6,1.0698734E6,4.6813997E5,3.7441738E5,1.0395305E5,1.2532569E6,1.7489016E4,2.3093136E5,8.38942E5,9.348572E4,3.7465425E5,2.1724723E5,1.5717014E5,6.4361926E4,3.9591125E4,5.4423535E3,1.2478145E6,2.0690825E3,1.5419934E4,2.5836232E4,2.0509512E5,7.4599156E5,9.29504E4,2.904447E4,6.4441246E4,9.3959086E4,2.806952E5,2.1149994E5,5.747301E3,8.067943E4,7.64907E4,1.7994693E4,2.159643E4,1.9180143E3,3.5243394E3,7.1112695E4,1.1767019E6,1.5457675E3,5.2331494E2,1.791094E3,1.362884E4,2.3835297E4,2.0009343E3,9.50891E2,2.0414423E5,7.0432394E5,4.1667656E4,4.1395673E2,9.2536445E4,2.6209021E4,2.835449E3,3.7734582E4,2.6706666E4,8.723668E4,6.722405E3,1.1477783E5,1.6591734E5,3.9808586E4,1.7169134E5,5.1517954E3,5.955053E2,4.216825E4,3.851118E4,4.601741E4,3.0473295E4,7.1561616E3,1.0838531E4,5.7988904E2,2.1016541E4,1.7489224E3,1.690919E2,2.3945764E3,1.1297628E3,4.8273E4,2.2839695E4,1.1059258E6,7.077604E4,1.389773E3,1.5599458E2,4.1689072E2,1.06424225E2,1.2462446E3,5.4484937E2,6.9664507E3,6.6623887E3,1.1603814E4,1.2231483E4,1.654417E3,3.465174E2,6.016735E2,3.4921747E2,9.271086E2,2.0321712E5,1.459494E5,5.583745E5,2.9423148E4,1.2244509E4,3.2549277E2,8.846395E1,8.78858E4,4.650646E3,1.0654435E3,2.5143578E4,1.746725E1,2.817982E3,3.651209E4,1.2224901E3,4.7895757E3,2.191709E4,4.59648E4,4.1271875E4,2.6010957E3,4.121309E3,4.6194082E4,6.858375E4,4.9047035E4,1.1687031E5,3.9661188E4,1.4739809E2,5.0767524E3,7.504324E1,2.895088E4,1.3217369E4,3.462215E4,3.8890303E3,4.5861098E4,1.563127E2,2.8552541E4,1.9207537E3,3.5765378E2,6.798508E3,2.7137722E3,8.1247583E3,3.2323E2,2.5665906E2,2.0515826E4,5.007154E2,1.6447816E3,1.0414078E2,8.301038E0,1.6079086E2,6.628168E2,1.7317596E3,9.657259E2,1.6403685E2,1.8889177E3,4.6384082E4,2.1696574E4,1.1431212E3,1.0940372E5,9.9652206E5,2.1360178E3,6.864002E4,7.163949E2,6.73378E2,6.726609E1,8.872849E1,4.287148E0,4.1260358E2,2.143024E1,8.499398E1,1.0518401E3,1.9440456E2,1.3711209E2,4.0773727E2,9.641634E2,6.002287E3,3.8521184E3,2.8102705E3,2.4561687E3,9.1476455E3,1.9556306E3,1.0275853E4,1.2605491E2,1.528362E3,3.325785E2,1.6638964E1,3.469435E2,5.801651E2,9.5318664E4,1.0789846E5,3.495591E4,1.1099349E5,2.8594194E5,2.724326E5,1.6596646E4,1.2826501E4,7.2246155E2,1.1522047E4,2.5757984E4,6.2127816E4,3.615513E3,1.0351332E3,6.3632227E2,4.2912128E2,1.2875947E4,1.2267631E4,1.6234496E3,1.1945322E3,8.673368E3,2.7838723E4,3.0795648E2,9.145336E2,2.4593264E3,2.3302495E3,3.454399E2,2.157165E4,4.3607344E4,2.3574595E3,1.38346045E4,2.7437271E4,1.4212283E3,1.1798673E3,1.5062465E3,2.6150627E3,4.736799E3,4.1457285E4,6.749872E4,1.0850331E3,3.60054E4,1.3041637E4,3.597166E4,8.089865E4,2.06713E1,3.9640516E4,5.055749E3,2.100333E1,1.9285969E4,9.664913E3,3.2273787E3,9.98999E3,3.07221E4,3.9000486E3,3.8542976E3,3.4732544E1,1.5331903E2,2.9936645E0,4.7380212E2,2.8078738E4,1.0247408E3,8.9601276E2,1.8986014E2,1.6779364E2,6.2715884E3,5.2691925E2,8.320218E2,1.8817505E3,7.520652E3,6.041068E2,1.3386809E2,1.8936192E2,1.6805956E2,8.8599495E1,1.9926363E4,5.894636E2,2.9063736E2,2.1007802E2,4.8205643E1,1.5965759E3,3.618391E1,6.795686E1,4.06351E1,1.2015576E2,2.594434E2,4.033734E2,1.3819845E3,3.4977518E2,7.213485E1,8.9359106E2,2.9542318E1,1.3449452E2,1.554214E3,3.3470367E2,4.6132977E4,2.5110736E2,1.713764E4,4.558934E3,2.653368E2,8.777844E2,9.614786E4,1.3255863E4,3.1564453E5,6.8087756E5,2.7843047E4,4.0796973E4,2.9295255E2,4.2344235E2,2.4068676E1,6.493093E2,4.751321E1,1.975288E1,5.3947723E1,3.478077E1,2.5511269E2,1.5749088E2,6.858022E1,1.6413757E1,3.5670245E2,6.9513763E2,1.6795218E1,1.7760934E2,3.736481E2,3.4089184E1,3.053347E2,6.5882874E2,4.0622383E3,1.9400491E3,2.9289663E3,9.231521E2,2.4602253E3,3.5004523E2,2.1605696E3,2.9559912E2,8.2800946E2,8.319636E3,1.7476989E3,2.0793175E2,5.353593E3,4.9222603E3,5.399667E2,9.883954E2,3.289193E2,1.8024195E1,9.045032E4,4.8683423E3,1.6693404E4,9.120506E4,3.6546929E3,3.1301219E4,5.801453E4,5.2978965E4,1.2943262E5,1.5650931E5,1.3941737E4,2.5849086E5,5.551696E3,1.1044951E4,1.2328359E4,4.981413E2,5.7201135E2,1.5045016E2,1.0734097E4,7.879501E2,1.6472607E4,9.285376E3,1.4829948E4,4.7297867E4,4.2894345E2,3.1865693E3,3.3557043E2,6.9956274E2,3.028738E2,3.3344843E2,1.5766146E3,1.1299333E4,3.3875476E3,8.880083E3,1.3231276E3,3.00322E2,4.8882585E0,1.189644E3,8.524407E3,1.4896045E2,2.3692133E4,4.14659E3,2.0368116E1,2.8758835E2,1.5417203E3,7.885291E2,2.9607028E2,4.9369606E1,2.1170623E4,4.0102612E2,9.082849E2,4.269906E4,6.2838403E2,1.7290756E3,3.643558E2,1.3470248E4,1.7419389E4,1.0017883E4,2.273053E2,1.193923E3,2.949007E2,8.849667E2,1.4173685E3,8.887788E1,5.802561E2,2.0348066E3,3.6691394E3,1.0676592E3,3.0626572E4,1.0830712E4,6.58115E4,1.6872167E3,3.2078503E2,7.6424805E2,2.2773977E4,1.3231421E4,2.721726E3,1.031991E4,2.5736836E3,3.3397977E4,8.933461E3,7.196519E4],"tree_param":{"num_deleted":"0","num_feature":"36","num_nodes":"409","size_leaf_vector":"1"}},{"base_weights":[6.524341E-2,7.788567E-1,-6.76594E-1,4.6615303E-1,8.985864E-1,-7.6233363E-1,-2.994873E-1,7.8294873E-1,-6.3216555E-1,9.119525E-1,2.2822905E-2,-1.076363E0,-6.850357E-1,-9.1117686E-1,-1.0595078E-1,1.087081E0,4.046345E-1,-3.611824E-1,1.7864358E-1,9.3490934E-1,4.708002E-1,-4.5703664E-1,3.2735232E-1,-9.1397643E-1,-1.2308272E0,-5.1392436E-1,-8.6533684E-1,-1.1608129E0,-7.3961914E-1,1.5379511E-1,-4.8354948E-1,1.0961713E0,7.582891E-1,7.2990325E-3,8.8048667E-1,1.1245712E0,-9.389073E-2,5.494515E-1,9.6145123E-1,-1.7789067E0,7.0919925E-1,-1.0211762E0,2.5292096E-1,4.5823753E-1,-1.0538822E0,-1.2132505E0,1.245796E0,-4.982286E-2,-1.2378904E0,-7.080066E-1,-1.3224274E-1,-7.7974075E-1,-1.188151E0,-6.253982E-1,-1.2111139E0,-3.8954514E-1,-9.4500595E-1,5.5005795E-1,-2.5392318E-2,-1.0459585E0,-3.2894164E-1,1.0471008E0,3.323011E-1,9.8835844E-1,-3.6057088E-1,-1.8641913E-1,1.0217981E0,1.1041443E0,5.73965E-1,1.128219E0,-4.6181726E-1,-3.7110844E-1,1.1615999E0,9.4502974E-1,-1.0134028E-1,9.9543476E-1,7.8897387E-1,9.8459125E-1,-1.9321111E0,7.2657937E-1,-6.631201E0,-1.6408991E0,2.3804466E-1,5.7496107E-1,-1.4958612E0,5.975461E-1,-3.744781E-1,-1.5743176E0,4.0518993E-1,-1.2192159E0,8.810845E-1,-2.9437774E-1,1.406095E0,1.3562225E0,-3.6592123E-1,-1.2297451E0,-1.2932162E0,-1.3219605E-1,-8.1507856E-1,-3.9629287E-1,2.6579922E-1,-8.325206E-1,-2.5422263E-1,8.0383736E-1,-1.1963887E0,-3.8844147E-1,3.2142234E-1,-7.0533967E-1,-1.2397338E0,-5.607486E-1,1.4933118E0,7.2251207E-1,-9.811875E-1,1.2675567E0,4.2211202E-1,-5.633524E-1,1.976812E-1,1.1743922E0,-1.2075664E0,-4.761236E-2,-8.9671654E-1,1.0565821E0,-1.9561658E0,-2.5262706E0,1.0139933E0,-4.4947135E-1,1.0794514E0,1.0530313E0,-2.9278724E0,3.3142066E-1,9.291653E-1,6.937758E-1,-1.0034791E0,-4.6749413E-1,1.1308326E0,-5.059932E-1,1.2569262E0,1.1715937E0,-4.4220746E-1,-7.5926036E-1,1.0230893E0,-6.773004E-1,2.4308164E-1,1.0150024E0,6.96858E-1,-1.1191193E0,8.3438945E-1,3.8130668E-1,-6.559005E-1,-2.104578E0,8.9915407E-1,7.5523937E-1,-1.294075E0,-3.8954914E-1,-7.153629E0,-1.526872E0,-2.337162E0,-1.5305091E0,8.3850074E-1,-1.5354635E0,7.894955E-1,-1.3706039E0,-2.5298212E0,-5.3277415E-1,7.33724E-1,-1.2040411E0,1.1788764E0,-3.5424086E-1,-1.6572404E0,1.1177859E0,-4.0365914E-1,-1.2314314E0,-4.8351783E-1,-3.6245048E-1,3.7920198E-1,1.3828342E0,-1.5705703E0,1.4476061E0,-1.5227399E0,4.3689156E-1,-3.389321E-1,-1.2734792E0,-1.2215921E0,-1.2636904E0,-1.3942877E0,5.9969187E-1,-5.7986826E-1,-9.761736E-1,-2.7014765E-1,-7.5989366E-2,-1.2075834E0,1.327614E0,-3.0607232E-1,-5.6333995E-1,-8.9863133E-1,8.1878847E-1,-5.6166E-1,4.304734E-1,-3.7061635E-1,-1.2231638E0,-7.251E-1,-3.8643047E-1,9.279496E-1,1.0867821E0,-3.703794E-1,-1.2552547E0,-3.685988E-1,-1.684518E-1,-9.994596E-1,4.9210045E-1,3.8630217E-1,1.6560105E0,-3.8831446E-1,9.390189E-2,-1.0371646E0,1.2928476E0,-1.8484414E0,7.174226E-1,3.915214E-2,-1.0506072E0,1.8476683E-1,1.0626292E0,-4.1761607E-2,-1.7445244E0,1.4010556E0,-1.2986147E0,1.3291992E-1,1.1015582E-1,-9.570041E-1,-1.2074748E0,-2.1011476E-1,3.192348E-1,-3.9471814E-1,-6.530755E-1,-3.8511506E-1,-1.0255493E0,-3.693657E-1,-4.3981802E-1,3.124712E-1,1.6993348E-1,-2.232856E-1,3.3136064E-1,-5.783869E-1,-1.224916E0,3.2183325E-1,-1.0779508E0,-6.094476E-1,3.2976687E-1,-5.71546E-1,-1.6723579E0,2.1363E-1,-3.4974664E-2,-6.162865E-1,3.494943E-1,3.3583617E-1,-3.1689447E-1,-2.537121E-2,4.019926E-1,-7.104034E-1,3.5173675E-1,-3.298945E-1,-3.6705977E-1,4.0961897E-1,3.1677344E-1,3.0824112E-2,-1.0838012E0,-1.4409372E-1,1.2350453E-1,-4.9955845E-1,2.5411525E-1,3.114676E-1,2.3929982E-1,-1.3561708E-1,-5.2083695E-1,3.144736E-1,1.9809307E-1,3.0428135E-1,-3.6641634E-1,-6.437866E-1,3.8241214E-1,-5.9350705E-1,2.2873268E-1,-1.765926E0,-2.161155E0,3.0389458E-1,-1.1250185E0,-2.2625577E0,-3.841969E-1,-5.0401247E-1,-8.038148E-1,-4.6021917E-1,-5.282247E-1,-4.130478E-1,-4.245491E-1,3.1704918E-1,-4.3589112E-1,-5.892007E-1,2.8076792E-1,-4.5229435E-1,-3.8972312E-1,-4.484599E-1,-8.8761836E-1,-4.354708E-1,7.722955E-2,-4.1587862E-1,2.5458932E-1,-3.0824209E-2,3.2670802E-1,-4.8049837E-1,-4.3317986E-1,3.8092574E-1,-3.9078876E-1,-5.2469873E-1,-2.1128166E-1,3.4202653E-1,-3.7250888E-1,-1.08944476E-1,-3.8965285E-1,6.1542207E-1,4.3455243E-1,3.8945848E-1,-4.336125E-1,-4.9201134E-1,-4.3773156E-1,4.4061458E-1,-3.5396653E-1,-4.835274E-1,-3.7151682E-1,-3.905953E-1,-3.635639E-1,-3.7021846E-1,-3.914343E-1,-3.62699E-1,-5.6146616E-1,-4.0098372E-1,2.732342E-1,-7.240344E-2,-1.0281147E-2,-3.27434E-1,-3.1890827E-1,-1.7360687E-1,4.0299293E-1,-1.2519997E-1,4.5849112E-1,-5.1965147E-2,4.1550642E-1,-3.754411E-1,4.060816E-2,6.7358685E-1,-1.8650743E-1,1.937679E-1,2.4071738E-1,-2.2848706E-1,-2.4989411E-1,-3.5421136E-1,-2.718957E-1,5.7544297E-1,-2.1789695E-1,3.126264E-1,-1.09750755E-1,-3.7086287E-1,-3.763955E-1,6.077412E-2,3.6275777E-1,-3.8390088E-1,-3.5989636E-1,3.9238247E-1,-3.9618614E-1,-3.7261525E-1,4.8296295E-2,-3.9884034E-1,-3.514132E-2,-3.8263997E-1,-2.9707083E-1,5.0573266E-1,3.5691223E-1,-3.7333736E-1,-1.892216E-1,-3.6041868E-1,6.192534E-1,3.7196675E-1,-6.0546106E-1,-3.5466662E-1,2.3395E-1,-3.0282378E-1,-3.549569E-1,1.8251216E-1,-5.170219E-2,-4.218584E-1,2.1876718E-1,-2.7572358E-1,3.599715E-1,-1.0233475E-1,-3.3750433E-1,4.657423E-2,-7.531481E-1,-4.7739908E-1,4.4868633E-1,-4.1261628E-1,1.3798967E-1,-4.070479E-1,-4.5425484E-1,4.2005944E-1,-2.7746534E-1,7.388676E-2,1.5334367E-2,-4.4386345E-1,4.808855E-1,-3.8705963E-1,1.506173E-1,-4.1920453E-1],"categories":[],"categories_nodes":[],"categories_segments":[],"categories_sizes":[],"default_left":[0,0,0,0,0,0,0,0,0,0,0,0,0,0,0,0,0,0,0,0,0,0,0,0,0,0,0,0,0,0,0,0,0,0,0,0,0,0,0,0,0,0,0,0,0,0,0,0,0,0,0,0,0,0,0,0,0,0,0,0,0,0,0,0,0,0,0,0,0,0,0,0,0,0,0,0,0,0,0,0,0,0,0,0,0,0,0,0,0,0,0,0,0,0,0,0,0,0,0,0,0,0,0,0,0,0,0,0,0,0,0,0,0,0,0,0,0,0,0,0,0,0,0,0,0,0,0,0,0,0,0,0,0,0,0,0,0,0,0,0,0,0,0,0,0,0,0,0,0,0,0,0,0,0,0,0,0,0,0,0,0,0,0,0,0,0,0,0,0,0,0,0,0,0,0,0,0,0,0,0,0,0,0,0,0,0,0,0,0,0,0,0,0,0,0,0,0,0,0,0,0,0,0,0,0,0,0,0,0,0,0,0,0,0,0,0,0,0,0,0,0,0,0,0,0,0,0,0,0,0,0,0,0,0,0,0,0,0,0,0,0,0,0,0,0,0,0,0,0,0,0,0,0,0,0,0,0,0,0,0,0,0,0,0,0,0,0,0,0,0,0,0,0,0,0,0,0,0,0,0,0,0,0,0,0,0,0,0,0,0,0,0,0,0,0,0,0,0,0,0,0,0,0,0,0,0,0,0,0,0,0,0,0,0,0,0,0,0,0,0,0,0,0,0,0,0,0,0,0,0,0,0,0,0,0,0,0,0,0,0,0,0,0,0,0,0,0,0,0,0,0,0,0,0,0,0,0,0,0,0,0,0,0,0,0,0,0,0,0,0,0,0,0,0,0,0,0,0,0,0,0,0,0,0,0,0,0,0,0,0,0,0,0,0,0,0,0,0,0,0,0,0,0,0,0,0,0,0,0,0,0],"id":4,"left_children":[1,3,5,7,9,11,13,15,17,19,21,23,25,27,29,31,33,-1,35,37,39,41,43,45,47,49,51,53,55,57,59,61,63,65,67,69,71,73,75,77,79,81,83,85,87,89,91,93,95,97,99,101,103,105,107,109,111,113,115,117,119,121,-1,123,-1,125,127,129,131,133,-1,135,137,139,141,143,145,147,149,151,153,155,157,159,161,163,165,167,169,171,173,175,177,179,-1,181,183,185,187,189,191,193,195,197,199,-1,201,203,205,207,209,211,213,215,217,219,221,223,225,227,229,231,233,235,237,239,241,243,245,-1,247,249,251,-1,253,255,257,259,-1,261,263,265,267,269,271,273,275,-1,-1,277,279,281,283,-1,285,287,289,291,293,295,297,299,301,303,305,307,309,-1,311,313,-1,315,317,-1,-1,319,321,323,325,-1,-1,327,329,331,333,335,337,339,341,343,345,347,349,351,353,355,357,-1,-1,359,361,-1,363,365,-1,367,-1,369,371,-1,-1,373,-1,375,377,379,381,383,385,387,389,391,393,395,397,399,401,403,405,407,409,-1,-1,-1,-1,-1,-1,-1,-1,-1,-1,-1,-1,-1,-1,-1,-1,-1,-1,-1,-1,-1,-1,-1,-1,-1,-1,-1,-1,-1,-1,-1,-1,-1,-1,-1,-1,-1,-1,-1,-1,-1,-1,-1,-1,-1,-1,-1,-1,-1,-1,-1,-1,-1,-1,-1,-1,-1,-1,-1,-1,-1,-1,-1,-1,-1,-1,-1,-1,-1,-1,-1,-1,-1,-1,-1,-1,-1,-1,-1,-1,-1,-1,-1,-1,-1,-1,-1,-1,-1,-1,-1,-1,-1,-1,-1,-1,-1,-1,-1,-1,-1,-1,-1,-1,-1,-1,-1,-1,-1,-1,-1,-1,-1,-1,-1,-1,-1,-1,-1,-1,-1,-1,-1,-1,-1,-1,-1,-1,-1,-1,-1,-1,-1,-1,-1,-1,-1,-1,-1,-1,-1,-1,-1,-1,-1,-1,-1,-1,-1,-1,-1,-1,-1,-1,-1,-1,-1,-1,-1,-1,-1,-1,-1,-1,-1,-1,-1,-1,-1,-1,-1,-1,-1,-1,-1,-1,-1,-1,-1,-1],"loss_changes":[1.4541874E6,5.2419312E4,4.3546938E4,1.3488198E5,1.18513125E4,2.6635875E4,2.9536166E4,3.4617203E4,4.0232965E4,1.00990625E4,2.2244124E3,5.435703E3,2.7167062E4,2.5673047E3,1.8589102E4,4.9765625E2,2.5351908E4,0E0,9.252603E3,9.6971875E3,2.6457957E4,2.367214E3,1.6839736E3,6.830328E4,9.265469E2,3.346897E4,1.18469375E4,6.570117E2,2.5552559E3,7.973117E3,6.7160625E3,9.04375E1,2.0263108E3,1.4360832E4,4.18225E3,7.974902E1,9.698262E3,1.5721412E4,5.19725E3,2.0031367E3,5.6951953E3,2.570352E3,1.4749839E3,9.870575E2,6.129374E2,1.1605938E3,3.1756367E3,1.0897025E3,4.81875E1,1.8465719E4,1.6007354E4,9.400234E3,1.4755625E3,1.3311143E3,3.2228125E2,4.2379478E3,1.352207E3,3.2093135E3,9.279418E3,5.9776504E3,9.677779E3,8.7995703E2,0E0,3.6469336E2,0E0,2.043177E4,1.4483867E3,2.625E0,4.86563E3,5.8054688E1,0E0,5.012911E3,1.3447754E2,5.0536875E3,4.580126E3,4.327625E3,1.2650961E4,2.2888365E2,2.188914E3,2.5780078E3,2.8451318E2,1.716665E2,1.1556915E3,1.0023408E3,4.9286987E1,1.1222034E3,1.5732617E3,1.7444092E1,2.6697452E2,8.311094E2,2.1288211E2,2.5989524E3,1.418457E3,7.650592E1,0E0,3.2765625E1,4.0466797E1,1.5387498E4,2.2169969E4,2.3793055E4,3.6882953E4,5.4802812E3,1.020492E4,4.7881323E2,1.1284141E3,0E0,8.508787E2,1.1375797E3,2.0878906E0,2.0736162E3,3.1019043E1,8.9889954E2,1.3195645E3,4.193545E2,3.3560112E3,8.262355E3,1.1320435E4,7.5038855E2,1.895043E3,5.8128804E3,4.2829307E3,5.506953E2,1.1660309E1,2.9751007E1,2.744829E2,1.5215707E4,7.985127E2,1.1833535E3,4.7676453E1,0E0,6.2383446E1,2.7519883E3,1.6935934E3,0E0,1.8085938E0,4.8885566E3,5.290029E2,1.1122559E1,0E0,1.6430798E3,1.0969883E3,4.9942036E3,4.6493066E3,2.711E3,5.278283E3,4.540725E3,4.4641875E3,0E0,0E0,1.5166797E2,2.811859E2,2.1035215E3,8.497246E3,0E0,9.834033E1,6.948242E1,8.0737305E1,7.3377686E0,4.011267E2,4.371277E0,6.76626E2,1.3067017E0,1.5513458E1,5.2925586E2,6.253103E2,7.271915E2,1.03168945E2,0E0,1.3619263E1,6.9707794E0,0E0,8.109375E2,3.1301194E3,0E0,0E0,1.036499E0,3.6254883E0,7.0692773E2,3.0816345E0,0E0,0E0,1.3494141E1,8.328125E0,2.3060547E1,8.529883E1,4.6636426E3,8.13333E3,6.7287812E3,1.3685439E4,1.0239812E4,2.9505938E3,2.3262652E4,1.1862106E4,1.6446164E4,4.577797E3,1.3067814E4,6.3505024E3,0E0,0E0,9.4665625E2,2.3648962E3,0E0,3.9440186E2,1.3994653E2,0E0,5.9121094E0,0E0,2.4337612E3,1.3850479E3,0E0,0E0,2.734961E1,0E0,1.594198E3,1.3902773E3,2.1185352E2,2.4784393E0,1.8065215E3,8.991152E3,4.2863906E3,5.373926E3,2.2840723E3,9.136311E3,5.615982E0,2.776311E2,1.4888887E3,2.065152E3,4.8650576E3,3.1553862E3,3.2149023E3,5.290211E3,0E0,0E0,0E0,0E0,0E0,0E0,0E0,0E0,0E0,0E0,0E0,0E0,0E0,0E0,0E0,0E0,0E0,0E0,0E0,0E0,0E0,0E0,0E0,0E0,0E0,0E0,0E0,0E0,0E0,0E0,0E0,0E0,0E0,0E0,0E0,0E0,0E0,0E0,0E0,0E0,0E0,0E0,0E0,0E0,0E0,0E0,0E0,0E0,0E0,0E0,0E0,0E0,0E0,0E0,0E0,0E0,0E0,0E0,0E0,0E0,0E0,0E0,0E0,0E0,0E0,0E0,0E0,0E0,0E0,0E0,0E0,0E0,0E0,0E0,0E0,0E0,0E0,0E0,0E0,0E0,0E0,0E0,0E0,0E0,0E0,0E0,0E0,0E0,0E0,0E0,0E0,0E0,0E0,0E0,0E0,0E0,0E0,0E0,0E0,0E0,0E0,0E0,0E0,0E0,0E0,0E0,0E0,0E0,0E0,0E0,0E0,0E0,0E0,0E0,0E0,0E0,0E0,0E0,0E0,0E0,0E0,0E0,0E0,0E0,0E0,0E0,0E0,0E0,0E0,0E0,0E0,0E0,0E0,0E0,0E0,0E0,0E0,0E0,0E0,0E0,0E0,0E0,0E0,0E0,0E0,0E0,0E0,0E0,0E0,0E0,0E0,0E0,0E0,0E0,0E0,0E0,0E0,0E0,0E0,0E0,0E0,0E0,0E0,0E0,0E0,0E0,0E0,0E0,0E0,0E0,0E0,0E0,0E0,0E0,0E0,0E0,0E0,0E0,0E0,0E0],"parents":[2147483647,0,0,1,1,2,2,3,3,4,4,5,5,6,6,7,7,8,8,9,9,10,10,11,11,12,12,13,13,14,14,15,15,16,16,18,18,19,19,20,20,21,21,22,22,23,23,24,24,25,25,26,26,27,27,28,28,29,29,30,30,31,31,32,32,33,33,34,34,35,35,36,36,37,37,38,38,39,39,40,40,41,41,42,42,43,43,44,44,45,45,46,46,47,47,48,48,49,49,50,50,51,51,52,52,53,53,54,54,55,55,56,56,57,57,58,58,59,59,60,60,61,61,63,63,65,65,66,66,67,67,68,68,69,69,71,71,72,72,73,73,74,74,75,75,76,76,77,77,78,78,79,79,80,80,81,81,82,82,83,83,84,84,85,85,86,86,87,87,88,88,89,89,90,90,91,91,92,92,93,93,95,95,96,96,97,97,98,98,99,99,100,100,101,101,102,102,103,103,104,104,106,106,107,107,108,108,109,109,110,110,111,111,112,112,113,113,114,114,115,115,116,116,117,117,118,118,119,119,120,120,121,121,122,122,123,123,124,124,125,125,126,126,127,127,128,128,130,130,131,131,132,132,134,134,135,135,136,136,137,137,139,139,140,140,141,141,142,142,143,143,144,144,145,145,146,146,149,149,150,150,151,151,152,152,154,154,155,155,156,156,157,157,158,158,159,159,160,160,161,161,162,162,163,163,164,164,165,165,166,166,168,168,169,169,171,171,172,172,175,175,176,176,177,177,178,178,181,181,182,182,183,183,184,184,185,185,186,186,187,187,188,188,189,189,190,190,191,191,192,192,193,193,194,194,195,195,196,196,199,199,200,200,202,202,203,203,205,205,207,207,208,208,211,211,213,213,214,214,215,215,216,216,217,217,218,218,219,219,220,220,221,221,222,222,223,223,224,224,225,225,226,226,227,227,228,228,229,229,230,230],"right_children":[2,4,6,8,10,12,14,16,18,20,22,24,26,28,30,32,34,-1,36,38,40,42,44,46,48,50,52,54,56,58,60,62,64,66,68,70,72,74,76,78,80,82,84,86,88,90,92,94,96,98,100,102,104,106,108,110,112,114,116,118,120,122,-1,124,-1,126,128,130,132,134,-1,136,138,140,142,144,146,148,150,152,154,156,158,160,162,164,166,168,